<?xml version="1.0"?>
<opencv_storage>
<cascade>
  <stageType>BOOST</stageType>
  <featureType>LBP</featureType>
  <height>20</height>
  <width>20</width>
  <stageParams>
    <boostType>GAB</boostType>
    <minHitRate>9.9900001287460327e-01</minHitRate>
    <maxFalseAlarm>5.0000000000000000e-01</maxFalseAlarm>
    <weightTrimRate>9.4999999999999996e-01</weightTrimRate>
    <maxDepth>1</maxDepth>
    <maxWeakCount>100</maxWeakCount></stageParams>
  <featureParams>
    <maxCatCount>256</maxCatCount>
    <featSize>1</featSize></featureParams>
  <stageNum>20</stageNum>
  <stages>
    <!-- stage 0 -->
    <_>
      <maxWeakCount>6</maxWeakCount>
      <stageThreshold>-2.0142259597778320e+00</stageThreshold>
      <weakClassifiers>
        <_>
          <internalNodes>
            0 -1 145 -1 -8923657 -619985953 -8922721 -787902287
            1935524343 861544753 838825759</internalNodes>
          <leafValues>
            -8.5037976503372192e-01 3.4611979126930237e-01</leafValues></_>
        <_>
          <internalNodes>
            0 -1 88 -44532227 -99969 -591388705 -147301253 -78561424
            -8554375 -95405189 2131764216</internalNodes>
          <leafValues>
            -7.6866221427917480e-01 3.9264795184135437e-01</leafValues></_>
        <_>
          <internalNodes>
            0 -1 164 -273687187 -205203491 1363990415 -883044451
            -1791027455 1392644400 340206379 2618175</internalNodes>
          <leafValues>
            -7.5958138704299927e-01 4.0808594226837158e-01</leafValues></_>
        <_>
          <internalNodes>
            0 -1 89 1892340560 2043797329 2004209527 2102525279
            2050226172 1023520713 296807160 1031674490</internalNodes>
          <leafValues>
            -6.6952168941497803e-01 4.4818907976150513e-01</leafValues></_>
        <_>
          <internalNodes>
            0 -1 90 1043292157 -168034305 1860988765 2113433210
            2013099900 -2261164 2002074619 -9999824</internalNodes>
          <leafValues>
            -4.7783237695693970e-01 5.8796489238739014e-01</leafValues></_>
        <_>
          <internalNodes>
            0 -1 14 -156307458 2125630018 -83076857 184879374 1795314316
            1527007372 -1056739550 1669285863</internalNodes>
          <leafValues>
            -6.7175650596618652e-01 4.3472081422805786e-01</leafValues></_></weakClassifiers></_>
    <!-- stage 1 -->
    <_>
      <maxWeakCount>7</maxWeakCount>
      <stageThreshold>-1.6149986982345581e+00</stageThreshold>
      <weakClassifiers>
        <_>
          <internalNodes>
            0 -1 74 2132180831 -11009 1595301343 -172577 2033481087
            -7495681 -1147634689 -1082185601</internalNodes>
          <leafValues>
            -7.4881786108016968e-01 3.7840065360069275e-01</leafValues></_>
        <_>
          <internalNodes>
            0 -1 162 -134217731 -2359297 -182068801 -2425354 -739515051
            1134543309 -1597385468 1099090</internalNodes>
          <leafValues>
            -8.1272661685943604e-01 3.2061237096786499e-01</leafValues></_>
        <_>
          <internalNodes>
            0 -1 157 -2099279 -877801007 -612108289 -539492397
            1605334451 28117147 1451491107 1574952959</internalNodes>
          <leafValues>
            -6.0111814737319946e-01 4.8911806941032410e-01</leafValues></_>
        <_>
          <internalNodes>
            0 -1 133 -102822587 360011773 -712790095 2010776060
            2107471356 294960637 495238392 964231388</internalNodes>
          <leafValues>
            -6.6393774747848511e-01 3.9039501547813416e-01</leafValues></_>
        <_>
          <internalNodes>
            0 -1 58 -205852674 877823230 -552245494 -1081013982
            -142181504 -384642148 -73663681 868707967</internalNodes>
          <leafValues>
            -6.1401921510696411e-01 4.4555810093879700e-01</leafValues></_>
        <_>
          <internalNodes>
            0 -1 110 -581634860 -2102339 1443888591 1125673590 -83316264
            631188254 1509451929 1067127306</internalNodes>
          <leafValues>
            -6.0812842845916748e-01 4.1677808761596680e-01</leafValues></_>
        <_>
          <internalNodes>
            0 -1 39 -294228368 -67223393 -1160110081 2133882096
            2066622279 1934163979 1003178015 1030967413</internalNodes>
          <leafValues>
            -6.9566470384597778e-01 3.5451009869575500e-01</leafValues></_></weakClassifiers></_>
    <!-- stage 2 -->
    <_>
      <maxWeakCount>9</maxWeakCount>
      <stageThreshold>-2.7231388092041016e+00</stageThreshold>
      <weakClassifiers>
        <_>
          <internalNodes>
            0 -1 163 -68157953 -874517809 -1684799521 -872416545
            -1311000661 1909045775 872362775 1154216759</internalNodes>
          <leafValues>
            -8.3647644519805908e-01 -2.6145158335566521e-02</leafValues></_>
        <_>
          <internalNodes>
            0 -1 4 -4268033 606208031 -7390241 65929823 -274464769
            1260046875 -546645001 1114533666</internalNodes>
          <leafValues>
            -7.4266713857650757e-01 2.5337576866149902e-01</leafValues></_>
        <_>
          <internalNodes>
            0 -1 158 -203431115 130066427 -36192259 -2100770 -1146112001
            265015215 1370444285 -1644208920</internalNodes>
          <leafValues>
            -5.5042850971221924e-01 4.0888708829879761e-01</leafValues></_>
        <_>
          <internalNodes>
            0 -1 50 -187038403 -67868577 1871730677 -545889942
            -1156107407 -581957583 -1413645441 -46923213</internalNodes>
          <leafValues>
            -5.4529392719268799e-01 4.3515861034393311e-01</leafValues></_>
        <_>
          <internalNodes>
            0 -1 147 -176688936 266986913 -203458305 -1110707901
            301463867 1364187794 1894863410 1040179071</internalNodes>
          <leafValues>
            -5.8895546197891235e-01 4.0028554201126099e-01</leafValues></_>
        <_>
          <internalNodes>
            0 -1 124 257752624 970521594 -604045483 1024709631
            1000128511 -1116144742 1040070909 488704862</internalNodes>
          <leafValues>
            -6.4138084650039673e-01 3.2827380299568176e-01</leafValues></_>
        <_>
          <internalNodes>
            0 -1 205 -67132763 537918089 1443074769 14391899 -2017398007
            46731841 -3411941 1600123899</internalNodes>
          <leafValues>
            -5.5264323949813843e-01 3.9498713612556458e-01</leafValues></_>
        <_>
          <internalNodes>
            0 -1 9 -617620097 605751239 1208959453 1784626783 57893994
            224381129 -912537530 1159199346</internalNodes>
          <leafValues>
            -5.2991193532943726e-01 4.0198045969009399e-01</leafValues></_>
        <_>
          <internalNodes>
            0 -1 97 1598333072 1409268893 -622863561 -231226694 -7848968
            2102858127 -272566136 924389584</internalNodes>
          <leafValues>
            -6.7564910650253296e-01 2.9492512345314026e-01</leafValues></_></weakClassifiers></_>
    <!-- stage 3 -->
    <_>
      <maxWeakCount>8</maxWeakCount>
      <stageThreshold>-1.9414101839065552e+00</stageThreshold>
      <weakClassifiers>
        <_>
          <internalNodes>
            0 -1 52 1434443231 1973154265 -577647105 -113314 2066955775
            -5926 -5246977 -10531137</internalNodes>
          <leafValues>
            -7.0321649312973022e-01 4.2346134781837463e-01</leafValues></_>
        <_>
          <internalNodes>
            0 -1 5 -3145746 -470614 -562520130 -1431385822 -75497473
            -67452317 -19218490 -540620988</internalNodes>
          <leafValues>
            -7.1129244565963745e-01 3.2863238453865051e-01</leafValues></_>
        <_>
          <internalNodes>
            0 -1 200 -805306573 -520097896 2147481254 -1037242386
            -1766344037 19853183 1472181899 -608174085</internalNodes>
          <leafValues>
            -4.6913206577301025e-01 5.5419075489044189e-01</leafValues></_>
        <_>
          <internalNodes>
            0 -1 68 -227086788 -42062083 -565002753 -206960792
            -1023196413 1996995163 -1277228549 2065257274</internalNodes>
          <leafValues>
            -5.5619341135025024e-01 4.3867048621177673e-01</leafValues></_>
        <_>
          <internalNodes>
            0 -1 203 -1207983716 126716876 -1027492910 -2142301661
            735785440 13426880 466608630 -822095905</internalNodes>
          <leafValues>
            -5.7770967483520508e-01 3.8859644532203674e-01</leafValues></_>
        <_>
          <internalNodes>
            0 -1 63 -288381326 -1437988820 -1576967670 -514079840
            -111458302 4851978 22216706 -169871381</internalNodes>
          <leafValues>
            -5.5235379934310913e-01 3.8677176833152771e-01</leafValues></_>
        <_>
          <internalNodes>
            0 -1 114 1411146204 2078085469 941382644 288489814
            -209177800 2125400066 932740030 -15400320</internalNodes>
          <leafValues>
            -5.6516116857528687e-01 4.1078537702560425e-01</leafValues></_>
        <_>
          <internalNodes>
            0 -1 117 -8389000 -174074915 1267986213 1272122753
            1918464754 -642012952 286210869 1856513569</internalNodes>
          <leafValues>
            -7.1628707647323608e-01 3.0402994155883789e-01</leafValues></_></weakClassifiers></_>
    <!-- stage 4 -->
    <_>
      <maxWeakCount>10</maxWeakCount>
      <stageThreshold>-2.0764682292938232e+00</stageThreshold>
      <weakClassifiers>
        <_>
          <internalNodes>
            0 -1 187 -68158665 -469771825 1460130263 -1867525153
            -1409287525 32235594 -1816160257 -681575425</internalNodes>
          <leafValues>
            -7.3919177055358887e-01 1.0887227952480316e-01</leafValues></_>
        <_>
          <internalNodes>
            0 -1 47 -53343045 -33673189 1074737151 2098349946 -83805294
            -78904832 -1610044485 -12877957</internalNodes>
          <leafValues>
            -5.4611176252365112e-01 4.2964619398117065e-01</leafValues></_>
        <_>
          <internalNodes>
            0 -1 150 -1092765444 -1333904994 -1948792322 -235940906
            -1449280513 -2135129928 322013689 423084346</internalNodes>
          <leafValues>
            -5.8531612157821655e-01 3.6885568499565125e-01</leafValues></_>
        <_>
          <internalNodes>
            0 -1 22 -310579656 -149438378 -1114757858 122028160
            -11732076 2120116802 2079326055 -715128865</internalNodes>
          <leafValues>
            -5.5082118511199951e-01 4.0462911128997803e-01</leafValues></_>
        <_>
          <internalNodes>
            0 -1 196 -2097679445 577955354 1346621936 5015724 324769690
            324868162 438287674 4190778</internalNodes>
          <leafValues>
            -6.6180044412612915e-01 3.6377105116844177e-01</leafValues></_>
        <_>
          <internalNodes>
            0 -1 81 -74395654 -2448781 1359035663 793706650 -100613240
            -1084587790 2105736099 1893746487</internalNodes>
          <leafValues>
            -5.9739470481872559e-01 3.6633020639419556e-01</leafValues></_>
        <_>
          <internalNodes>
            0 -1 109 -125537268 -41989411 -670016035 57803263 -70546516
            -1082720120 -770613860 -12903750</internalNodes>
          <leafValues>
            -5.4477816820144653e-01 4.1448941826820374e-01</leafValues></_>
        <_>
          <internalNodes>
            0 -1 46 -179171634 2004294235 -452817825 1932746506
            -66513920 1947271424 725736316 2138274806</internalNodes>
          <leafValues>
            -5.4082858562469482e-01 3.9567521214485168e-01</leafValues></_>
        <_>
          <internalNodes>
            0 -1 122 -212473452 -1084237345 -586179113 1057264542
            -1332104967 1759199402 87887933 2143174238</internalNodes>
          <leafValues>
            -5.3477174043655396e-01 4.0347561240196228e-01</leafValues></_>
        <_>
          <internalNodes>
            0 -1 220 -1428174337 -1593881453 -754925483 -2106931724
            -1165042977 -1476157437 -897395258 -1032591789</internalNodes>
          <leafValues>
            -4.7520449757575989e-01 4.5547875761985779e-01</leafValues></_></weakClassifiers></_>
    <!-- stage 5 -->
    <_>
      <maxWeakCount>10</maxWeakCount>
      <stageThreshold>-2.0639026165008545e+00</stageThreshold>
      <weakClassifiers>
        <_>
          <internalNodes>
            0 -1 57 -269488657 -210106882 -643827297 -26867968
            -268439873 -71327087 -1156412433 -31801</internalNodes>
          <leafValues>
            -7.3457944393157959e-01 1.6472662985324860e-01</leafValues></_>
        <_>
          <internalNodes>
            0 -1 149 -1207964684 278840796 -753672235 -2108690
            -1248073221 145165988 1434685933 465285546</internalNodes>
          <leafValues>
            -6.5328443050384521e-01 2.8653839230537415e-01</leafValues></_>
        <_>
          <internalNodes>
            0 -1 1 -140774401 -1022748146 1930406410 2139783934
            1943270062 1943011595 1658841866 1075284038</internalNodes>
          <leafValues>
            -5.1086038351058960e-01 4.2053377628326416e-01</leafValues></_>
        <_>
          <internalNodes>
            0 -1 167 1870659488 1339015368 -1051339825 1296946444
            1373583280 736993423 1909862842 13629300</internalNodes>
          <leafValues>
            -7.1741706132888794e-01 3.0246573686599731e-01</leafValues></_>
        <_>
          <internalNodes>
            0 -1 96 -285433840 -23113513 495361855 864159054 -34466819
            -76084552 -236159716 2133273592</internalNodes>
          <leafValues>
            -6.2967312335968018e-01 3.2340714335441589e-01</leafValues></_>
        <_>
          <internalNodes>
            0 -1 31 -290806088 1192591507 -581033571 387197186
            2118783758 1920860347 -477154473 -176334753</internalNodes>
          <leafValues>
            -5.6654745340347290e-01 3.5512474179267883e-01</leafValues></_>
        <_>
          <internalNodes>
            0 -1 101 1866854220 -1610771745 1478318047 2002533647
            -10752084 -248785825 2135796041 2135892106</internalNodes>
          <leafValues>
            -5.3180390596389771e-01 4.0516832470893860e-01</leafValues></_>
        <_>
          <internalNodes>
            0 -1 191 -1147550496 -1869701110 -1601978344 -156699516
            -794105157 -1064722200 -1142388564 -1178926388</internalNodes>
          <leafValues>
            -4.6626207232475281e-01 4.2826431989669800e-01</leafValues></_>
        <_>
          <internalNodes>
            0 -1 202 -134233375 147839916 -800251279 1213432490
            -1147554417 1087232064 -555757101 1247803615</internalNodes>
          <leafValues>
            -5.1158767938613892e-01 4.0987485647201538e-01</leafValues></_>
        <_>
          <internalNodes>
            0 -1 126 -219089152 -101507564 1007157401 1968587354
            -1282700536 -209715168 -1414864166 -1279653830</internalNodes>
          <leafValues>
            -4.0795090794563293e-01 4.9236965179443359e-01</leafValues></_></weakClassifiers></_>
    <!-- stage 6 -->
    <_>
      <maxWeakCount>12</maxWeakCount>
      <stageThreshold>-2.3886551856994629e+00</stageThreshold>
      <weakClassifiers>
        <_>
          <internalNodes>
            0 -1 93 2011101117 989311189 1564258303 -9000609 2075820030
            -4519186 -1349668866 -1076146593</internalNodes>
          <leafValues>
            -7.1575611829757690e-01 8.0110497772693634e-02</leafValues></_>
        <_>
          <internalNodes>
            0 -1 80 -470880258 -484529897 -146645697 1305347496
            -997857030 -4413204 -336434241 -419475721</internalNodes>
          <leafValues>
            -5.5469506978988647e-01 3.1763616204261780e-01</leafValues></_>
        <_>
          <internalNodes>
            0 -1 199 234874679 -1547518562 -779358148 -823678932
            1170192274 41553007 384509518 1346107579</internalNodes>
          <leafValues>
            -6.2072592973709106e-01 2.7916464209556580e-01</leafValues></_>
        <_>
          <internalNodes>
            0 -1 155 1542683696 268153855 -178289422 -3480353 -570427973
            1442630576 562316464 356379804</internalNodes>
          <leafValues>
            -7.3140764236450195e-01 2.1487063169479370e-01</leafValues></_>
        <_>
          <internalNodes>
            0 -1 95 2061273168 872006323 706452989 872284654 -1082263820
            922999303 1008237469 1966945276</internalNodes>
          <leafValues>
            -6.6964173316955566e-01 2.6202538609504700e-01</leafValues></_>
        <_>
          <internalNodes>
            0 -1 174 -218103819 1474294750 -75246629 -83892233 889131432
            1696547275 717202121 4714947</internalNodes>
          <leafValues>
            -5.3073608875274658e-01 3.3710131049156189e-01</leafValues></_>
        <_>
          <internalNodes>
            0 -1 25 -292573457 -337237089 1246725842 -480304402
            -605848709 1127424519 1592522562 -134743993</internalNodes>
          <leafValues>
            -4.7788542509078979e-01 3.8063552975654602e-01</leafValues></_>
        <_>
          <internalNodes>
            0 -1 156 -8900 -1345852381 -973042513 -69745789 1956607787
            1167574598 2092258082 -1043892389</internalNodes>
          <leafValues>
            -4.7132962942123413e-01 3.5240247845649719e-01</leafValues></_>
        <_>
          <internalNodes>
            0 -1 103 -868455683 2142458230 -1560111268 1605771517
            2041864061 -47882215 997799930 -279420111</internalNodes>
          <leafValues>
            -4.7582805156707764e-01 3.5424888134002686e-01</leafValues></_>
        <_>
          <internalNodes>
            0 -1 136 -304876548 -539768104 1862376941 -7492917 397132345
            2022888078 84489265 1690611502</internalNodes>
          <leafValues>
            -6.0212945938110352e-01 2.8455981612205505e-01</leafValues></_>
        <_>
          <internalNodes>
            0 -1 30 -356790849 -202233281 -1291865824 1932636094
            -411738305 1416855423 -50856912 -210239618</internalNodes>
          <leafValues>
            -3.8273766636848450e-01 4.9402561783790588e-01</leafValues></_>
        <_>
          <internalNodes>
            0 -1 207 569044660 615422879 1631656268 552983453 1072427235
            15229259 1143188205 1420542718</internalNodes>
          <leafValues>
            -6.5973764657974243e-01 2.6744964718818665e-01</leafValues></_></weakClassifiers></_>
    <!-- stage 7 -->
    <_>
      <maxWeakCount>13</maxWeakCount>
      <stageThreshold>-2.0478954315185547e+00</stageThreshold>
      <weakClassifiers>
        <_>
          <internalNodes>
            0 -1 91 2055165695 -82109097 -544057345 -2682689 1934752767
            -1140914913 2130968575 -1323030</internalNodes>
          <leafValues>
            -6.6304349899291992e-01 2.4887387454509735e-01</leafValues></_>
        <_>
          <internalNodes>
            0 -1 209 -1926611587 -1646314146 -615622323 -67079681
            994819069 -1114587717 197134461 -1913258133</internalNodes>
          <leafValues>
            -4.8125630617141724e-01 3.2867023348808289e-01</leafValues></_>
        <_>
          <internalNodes>
            0 -1 179 2136793008 156489717 -41822763 -1097750631
            970418810 -1956522113 413320081 1105708975</internalNodes>
          <leafValues>
            -5.9719938039779663e-01 2.4172849953174591e-01</leafValues></_>
        <_>
          <internalNodes>
            0 -1 20 -226622001 15607055 -282865704 1761004252 1220501118
            -1437654978 -224171198 1684503419</internalNodes>
          <leafValues>
            -5.4561054706573486e-01 2.4675458669662476e-01</leafValues></_>
        <_>
          <internalNodes>
            0 -1 192 -1780491265 -275787269 289536466 151652758
            -1036381436 1780160527 -71795243 72248896</internalNodes>
          <leafValues>
            -6.4157146215438843e-01 2.2467422485351562e-01</leafValues></_>
        <_>
          <internalNodes>
            0 -1 84 -81998512 1892798306 -845550369 -144553513 -13739180
            2070638721 -918226852 1601984331</internalNodes>
          <leafValues>
            -5.0207948684692383e-01 2.9040962457656860e-01</leafValues></_>
        <_>
          <internalNodes>
            0 -1 226 -1343300787 -338768194 755029551 -895980532
            1818181646 156090441 1086406990 -214192545</internalNodes>
          <leafValues>
            -4.4414836168289185e-01 3.1023707985877991e-01</leafValues></_>
        <_>
          <internalNodes>
            0 -1 45 -1313074923 -694681123 17370204 47479120 755181760
            -1466969573 -1702094196 -302235675</internalNodes>
          <leafValues>
            -5.1031655073165894e-01 2.7780833840370178e-01</leafValues></_>
        <_>
          <internalNodes>
            0 -1 197 -1882635267 1640162136 1090578815 -339217972
            1305361622 -1066759485 2123311350 -1035996958</internalNodes>
          <leafValues>
            -4.1816967725753784e-01 3.3811864256858826e-01</leafValues></_>
        <_>
          <internalNodes>
            0 -1 127 -479548434 368028591 2147480575 1676932067
            -301993987 -1406277643 -41974309 -1460316291</internalNodes>
          <leafValues>
            -3.0933123826980591e-01 4.5928001403808594e-01</leafValues></_>
        <_>
          <internalNodes>
            0 -1 230 537028583 780456774 -80605235 -1661713516
            -388885509 -36110181 -1078338706 -1594033803</internalNodes>
          <leafValues>
            -5.3923791646957397e-01 2.6072576642036438e-01</leafValues></_>
        <_>
          <internalNodes>
            0 -1 134 1263596880 -342325165 -597823141 1832816895
            997277629 -2127255421 433327228 312953356</internalNodes>
          <leafValues>
            -6.0971361398696899e-01 2.3849199712276459e-01</leafValues></_>
        <_>
          <internalNodes>
            0 -1 165 -807666180 1641152897 -1475752752 -305872698
            1362051074 -202651775 -1285081768 53982407</internalNodes>
          <leafValues>
            -5.4829126596450806e-01 2.3457145690917969e-01</leafValues></_></weakClassifiers></_>
    <!-- stage 8 -->
    <_>
      <maxWeakCount>15</maxWeakCount>
      <stageThreshold>-2.1090323925018311e+00</stageThreshold>
      <weakClassifiers>
        <_>
          <internalNodes>
            0 -1 52 2012708319 2064744667 -644493377 1866254173
            2141945727 1936972794 -7352322 -27504801</internalNodes>
          <leafValues>
            -7.5238776206970215e-01 -1.5095156431198120e-01</leafValues></_>
        <_>
          <internalNodes>
            0 -1 22 -278086048 -145306090 -976339654 -2033275160
            -305136687 711920487 2144337911 -572534825</internalNodes>
          <leafValues>
            -5.7395386695861816e-01 1.5854422748088837e-01</leafValues></_>
        <_>
          <internalNodes>
            0 -1 183 -268435489 1565901783 1263656410 47404884
            -364654772 -80738239 2072665480 67564193</internalNodes>
          <leafValues>
            -5.3588783740997314e-01 2.1724243462085724e-01</leafValues></_>
        <_>
          <internalNodes>
            0 -1 70 -1109522993 1601119199 -2003504451 -36545075
            1974815152 2110087280 -1091502340 1600420839</internalNodes>
          <leafValues>
            -4.0441116690635681e-01 3.0580908060073853e-01</leafValues></_>
        <_>
          <internalNodes>
            0 -1 125 870705151 -101056517 2147332085 695222263
            -1077952593 -1107902468 -33566945 -1141438157</internalNodes>
          <leafValues>
            -2.1460890769958496e-01 5.6361228227615356e-01</leafValues></_>
        <_>
          <internalNodes>
            0 -1 178 -1209139332 254705275 1489018215 2136955243
            784879888 -1384435363 444743156 1097332591</internalNodes>
          <leafValues>
            -5.5923390388488770e-01 2.3309227824211121e-01</leafValues></_>
        <_>
          <internalNodes>
            0 -1 18 -6098189 173999735 1230634943 1640893966 -1296897906
            -404239961 2019752919 -732270722</internalNodes>
          <leafValues>
            -3.9099448919296265e-01 3.0653539299964905e-01</leafValues></_>
        <_>
          <internalNodes>
            0 -1 87 1985969348 -20063203 1750823361 -50442006 1265545040
            -1158209515 1971402744 2000103418</internalNodes>
          <leafValues>
            -5.5371540784835815e-01 2.1700271964073181e-01</leafValues></_>
        <_>
          <internalNodes>
            0 -1 221 34199283 -1790209589 -653012235 -360048162
            -67151913 -1689550137 -342928012 -368841977</internalNodes>
          <leafValues>
            -4.2044425010681152e-01 2.8087174892425537e-01</leafValues></_>
        <_>
          <internalNodes>
            0 -1 131 805252368 1977542626 -783268104 1155420523
            1238062544 1773725993 2113632189 717208419</internalNodes>
          <leafValues>
            -5.4183238744735718e-01 2.3568241298198700e-01</leafValues></_>
        <_>
          <internalNodes>
            0 -1 216 201399383 -1407944107 -649343045 -556132352
            -1075298545 -293550071 -3933218 -1359987916</internalNodes>
          <leafValues>
            -5.0146508216857910e-01 2.2988745570182800e-01</leafValues></_>
        <_>
          <internalNodes>
            0 -1 29 -352596129 1787713821 -762757116 1258335555
            -354743526 1294682880 -522038784 -148120561</internalNodes>
          <leafValues>
            -3.7424042820930481e-01 3.2501810789108276e-01</leafValues></_>
        <_>
          <internalNodes>
            0 -1 2 2031779631 840895291 -1943972653 177874623 1260634687
            1185106464 1118804924 138861652</internalNodes>
          <leafValues>
            -5.4335218667984009e-01 2.2753924131393433e-01</leafValues></_>
        <_>
          <internalNodes>
            0 -1 197 492114407 -1387033086 1233240959 -278662322
            1306403282 -654777774 1070304503 -771231118</internalNodes>
          <leafValues>
            -4.0362444519996643e-01 3.2175913453102112e-01</leafValues></_>
        <_>
          <internalNodes>
            0 -1 171 -2084697140 -1731294910 -921940355 -82844715
            592378879 -2099259317 1036137981 970093360</internalNodes>
          <leafValues>
            -5.6506091356277466e-01 2.2251524031162262e-01</leafValues></_></weakClassifiers></_>
    <!-- stage 9 -->
    <_>
      <maxWeakCount>10</maxWeakCount>
      <stageThreshold>-2.1276998519897461e+00</stageThreshold>
      <weakClassifiers>
        <_>
          <internalNodes>
            0 -1 204 -2101345 -470963313 -1304712704 -203426834
            -137366634 1167059339 1938553623 1476393963</internalNodes>
          <leafValues>
            -7.6508200168609619e-01 1.2685437500476837e-01</leafValues></_>
        <_>
          <internalNodes>
            0 -1 57 -815272209 -884289826 -1343883862 1860610730
            1942156255 -2121023 -548671521 -135918646</internalNodes>
          <leafValues>
            -5.8727252483367920e-01 4.0140050649642944e-01</leafValues></_>
        <_>
          <internalNodes>
            0 -1 33 -210785398 581345467 1342382592 1934860979
            -146748593 537358655 -175653469 -210241537</internalNodes>
          <leafValues>
            -4.5368626713752747e-01 5.3287589550018311e-01</leafValues></_>
        <_>
          <internalNodes>
            0 -1 168 2146412340 267380527 -519355470 1438608251
            1945891763 82678063 848016272 1407188607</internalNodes>
          <leafValues>
            -6.5951991081237793e-01 3.4915894269943237e-01</leafValues></_>
        <_>
          <internalNodes>
            0 -1 89 1945028868 905567065 352371022 -44721330 -14436385
            1974569132 1945233100 838740714</internalNodes>
          <leafValues>
            -6.2488847970962524e-01 3.5023808479309082e-01</leafValues></_>
        <_>
          <internalNodes>
            0 -1 6 -337171538 -1207938 -645298102 -3175574 -341265729
            -1141264090 -205547329 -1081866174</internalNodes>
          <leafValues>
            -5.4501992464065552e-01 3.8762643933296204e-01</leafValues></_>
        <_>
          <internalNodes>
            0 -1 27 -900734429 570853024 -1878364160 122880 -2062568702
            1075954048 21176640 -693644525</internalNodes>
          <leafValues>
            -5.4240542650222778e-01 4.0012097358703613e-01</leafValues></_>
        <_>
          <internalNodes>
            0 -1 225 -1547717855 -1909943926 -267988142 -2103049454
            323991817 1074212867 1120923648 -478944397</internalNodes>
          <leafValues>
            -5.9995591640472412e-01 3.7029120326042175e-01</leafValues></_>
        <_>
          <internalNodes>
            0 -1 188 -1079100444 221093966 -1861122046 1189055307
            -83672605 226994822 902803862 1447820830</internalNodes>
          <leafValues>
            -6.3936650753021240e-01 3.1491139531135559e-01</leafValues></_>
        <_>
          <internalNodes>
            0 -1 26 -228400374 -1415404374 4587648 -2082234238
            -1247289505 1343279755 -246026106 -782831062</internalNodes>
          <leafValues>
            -4.8196670413017273e-01 4.0613067150115967e-01</leafValues></_></weakClassifiers></_>
    <!-- stage 10 -->
    <_>
      <maxWeakCount>8</maxWeakCount>
      <stageThreshold>-2.1286523342132568e+00</stageThreshold>
      <weakClassifiers>
        <_>
          <internalNodes>
            0 -1 32 -4469 -1440226429 -805052397 1676669731 -345518333
            -2113683453 -1018707661 -201327141</internalNodes>
          <leafValues>
            -7.2031098604202271e-01 1.5202951431274414e-01</leafValues></_>
        <_>
          <internalNodes>
            0 -1 75 -585697364 -33687553 -582512156 -570849812 -71781397
            -1091270230 824783652 491108480</internalNodes>
          <leafValues>
            -7.2294747829437256e-01 2.4410465359687805e-01</leafValues></_>
        <_>
          <internalNodes>
            0 -1 144 -1279262944 -2048866305 1566021601 2145370016
            996146175 -1807694866 1072037365 301803438</internalNodes>
          <leafValues>
            -6.5623831748962402e-01 2.5407576560974121e-01</leafValues></_>
        <_>
          <internalNodes>
            0 -1 48 1447351172 -88543553 861731294 -38961966 -83763307
            -1280464245 2145238012 1979528171</internalNodes>
          <leafValues>
            -5.7172948122024536e-01 3.5168340802192688e-01</leafValues></_>
        <_>
          <internalNodes>
            0 -1 206 -1279548462 -1510999059 -222058861 1884496851
            -1148209407 193687193 1538240816 1476391871</internalNodes>
          <leafValues>
            -5.5060601234436035e-01 3.1944161653518677e-01</leafValues></_>
        <_>
          <internalNodes>
            0 -1 69 -1361269772 -52465065 -581044257 1553656782
            -150656129 1345528034 -85873668 1744250810</internalNodes>
          <leafValues>
            -5.3843557834625244e-01 3.3251217007637024e-01</leafValues></_>
        <_>
          <internalNodes>
            0 -1 15 2087596906 -58720257 -45663488 -271635478 -909181053
            -100467998 2013213204 1977870258</internalNodes>
          <leafValues>
            -6.4277803897857666e-01 2.5927346944808960e-01</leafValues></_>
        <_>
          <internalNodes>
            0 -1 41 -204804182 2009044443 -1870106333 1999974716
            -212999676 589371503 -66195690 1433893758</internalNodes>
          <leafValues>
            -4.7392040491104126e-01 3.5916170477867126e-01</leafValues></_></weakClassifiers></_>
    <!-- stage 11 -->
    <_>
      <maxWeakCount>14</maxWeakCount>
      <stageThreshold>-2.0368425846099854e+00</stageThreshold>
      <weakClassifiers>
        <_>
          <internalNodes>
            0 -1 104 2136964959 -8424937 866325471 -1153699201 -19171489
            -10767075 -336900129 -1409287873</internalNodes>
          <leafValues>
            -7.1285474300384521e-01 -4.9180328845977783e-02</leafValues></_>
        <_>
          <internalNodes>
            0 -1 106 -278993216 -1241526305 -716842195 -1077400666
            -611656280 -109357608 -124553462 373980592</internalNodes>
          <leafValues>
            -6.5546441078186035e-01 1.1829099059104919e-01</leafValues></_>
        <_>
          <internalNodes>
            0 -1 140 -152083708 -1077151747 -542254666 395184606
            -122113576 2025449405 -1214383336 367916991</internalNodes>
          <leafValues>
            -5.6116908788681030e-01 1.9447252154350281e-01</leafValues></_>
        <_>
          <internalNodes>
            0 -1 152 2105536508 354985634 1027473407 1358163824
            2146828276 -1380057092 2147295227 -906021506</internalNodes>
          <leafValues>
            -2.8093421459197998e-01 4.1526412963867188e-01</leafValues></_>
        <_>
          <internalNodes>
            0 -1 166 -408445683 -880088596 -532488737 -842493991
            1883436848 1241418175 864626587 2618229</internalNodes>
          <leafValues>
            -6.5432709455490112e-01 1.8335366249084473e-01</leafValues></_>
        <_>
          <internalNodes>
            0 -1 21 -1157935398 711093259 956776457 785621123
            -1286875521 584317535 -1115296625 -799544293</internalNodes>
          <leafValues>
            -3.8111028075218201e-01 3.1187099218368530e-01</leafValues></_>
        <_>
          <internalNodes>
            0 -1 78 1532371652 2049051270 -586713328 1244220928
            -1421870104 -1182187380 -11273349 1936400253</internalNodes>
          <leafValues>
            -5.5062872171401978e-01 2.0444753766059875e-01</leafValues></_>
        <_>
          <internalNodes>
            0 -1 142 -202405019 1306859995 -739256461 -1085587198
            -241485827 423156377 -1287540231 511091832</internalNodes>
          <leafValues>
            -4.9864381551742554e-01 2.3698805272579193e-01</leafValues></_>
        <_>
          <internalNodes>
            0 -1 132 221258704 -2021670159 -506819721 1191094444
            -1149400120 601596094 461969752 999107560</internalNodes>
          <leafValues>
            -5.4015541076660156e-01 1.9144774973392487e-01</leafValues></_>
        <_>
          <internalNodes>
            0 -1 51 171775861 806663495 -1774552772 -1120207724
            -2133327371 -893412415 -355694116 -109717244</internalNodes>
          <leafValues>
            -3.8074445724487305e-01 2.8870451450347900e-01</leafValues></_>
        <_>
          <internalNodes>
            0 -1 217 -2103490657 -1218719313 -753700524 902205843
            -1655916098 -1320482291 -202000169 -1899838380</internalNodes>
          <leafValues>
            -4.8870638012886047e-01 2.2476659715175629e-01</leafValues></_>
        <_>
          <internalNodes>
            0 -1 111 -855907372 179848142 -41824944 2131510534
            2145353148 -923861875 1962728912 1964259356</internalNodes>
          <leafValues>
            -6.2188827991485596e-01 1.7802567780017853e-01</leafValues></_>
        <_>
          <internalNodes>
            0 -1 71 2147159324 -471172325 5774239 1584029182 453575940
            -138647039 725723961 -183403172</internalNodes>
          <leafValues>
            -5.5010694265365601e-01 1.9888544082641602e-01</leafValues></_>
        <_>
          <internalNodes>
            0 -1 16 -1439233957 366692672 5870559 2076693505 -226549569
            456859827 -922527686 -990195469</internalNodes>
          <leafValues>
            -3.5258042812347412e-01 3.3014488220214844e-01</leafValues></_></weakClassifiers></_>
    <!-- stage 12 -->
    <_>
      <maxWeakCount>16</maxWeakCount>
      <stageThreshold>-2.4110465049743652e+00</stageThreshold>
      <weakClassifiers>
        <_>
          <internalNodes>
            0 -1 196 -201327681 -1073741910 -209988142 -136458354
            -1149266159 1507417963 -1683243137 -207619462</internalNodes>
          <leafValues>
            -6.8287312984466553e-01 -5.7922769337892532e-02</leafValues></_>
        <_>
          <internalNodes>
            0 -1 189 -1092699744 -2034324743 254778641 1600126955
            848762675 -2035846248 1060838841 1593569144</internalNodes>
          <leafValues>
            -6.8426215648651123e-01 1.3393124938011169e-01</leafValues></_>
        <_>
          <internalNodes>
            0 -1 185 -1229063371 180845037 1459704642 1205785547
            937399049 211798799 400529288 1190636051</internalNodes>
          <leafValues>
            -5.5408644676208496e-01 2.1277198195457458e-01</leafValues></_>
        <_>
          <internalNodes>
            0 -1 139 -146505548 -1090593 -538460163 -272537697
            1968116209 1540340671 -349371846 -1281410212</internalNodes>
          <leafValues>
            -4.4237267971038818e-01 2.9155343770980835e-01</leafValues></_>
        <_>
          <internalNodes>
            0 -1 54 -269484033 126534334 907182039 1861927578 467639295
            266027195 2138307569 -2133240588</internalNodes>
          <leafValues>
            -5.2666777372360229e-01 2.3319895565509796e-01</leafValues></_>
        <_>
          <internalNodes>
            0 -1 115 -1615551520 1031711663 1073721343 -524289 -524293
            -1107951620 -20529 -1107868942</internalNodes>
          <leafValues>
            -2.9220134019851685e-01 4.3420243263244629e-01</leafValues></_>
        <_>
          <internalNodes>
            0 -1 61 -218103809 -282415446 1861956601 1130859043
            -273279170 1195323263 -268994602 -1022378241</internalNodes>
          <leafValues>
            -2.9825910925865173e-01 3.9779439568519592e-01</leafValues></_>
        <_>
          <internalNodes>
            0 -1 43 -1932636476 1677408411 -724107207 1920097586
            -237845724 1896685573 -237735939 2134206325</internalNodes>
          <leafValues>
            -6.2968844175338745e-01 1.8832793831825256e-01</leafValues></_>
        <_>
          <internalNodes>
            0 -1 229 -1365757274 -1095324706 -2134603314 -1627748374
            713509880 -1432452791 736963515 -33997</internalNodes>
          <leafValues>
            -4.1949275135993958e-01 2.8147083520889282e-01</leafValues></_>
        <_>
          <internalNodes>
            0 -1 129 2096033524 1398007034 1443225053 1866105546
            -201854091 2081933555 1026536469 840132333</internalNodes>
          <leafValues>
            -5.2026891708374023e-01 2.2137136757373810e-01</leafValues></_>
        <_>
          <internalNodes>
            0 -1 211 -388372651 -210403521 -612716570 1390418756
            -117535710 -754266298 -51213142 -795156566</internalNodes>
          <leafValues>
            -3.3144941926002502e-01 3.4936380386352539e-01</leafValues></_>
        <_>
          <internalNodes>
            0 -1 143 788852272 1602971732 1374343001 931300000
            2102262780 -2071229525 1305432543 1889078708</internalNodes>
          <leafValues>
            -5.5704021453857422e-01 2.1521691977977753e-01</leafValues></_>
        <_>
          <internalNodes>
            0 -1 9 -634408710 1778065743 1209685469 -660660649 239811182
            -1934694197 181352490 1159200486</internalNodes>
          <leafValues>
            -4.0952634811401367e-01 2.8756901621818542e-01</leafValues></_>
        <_>
          <internalNodes>
            0 -1 222 -2091980681 -2096656241 85115182 -1289753022
            -2142830385 1124073473 -758431549 -260445369</internalNodes>
          <leafValues>
            -3.8764339685440063e-01 3.0730029940605164e-01</leafValues></_>
        <_>
          <internalNodes>
            0 -1 108 1601290040 333404666 -804924243 807060686
            1968565875 2118682813 -237897736 1195213804</internalNodes>
          <leafValues>
            -4.6982297301292419e-01 2.4894694983959198e-01</leafValues></_>
        <_>
          <internalNodes>
            0 -1 65 2044028308 720822163 -787902521 -1357590826
            -309353222 1169155018 -473734864 2016311959</internalNodes>
          <leafValues>
            -5.6945329904556274e-01 1.9476066529750824e-01</leafValues></_></weakClassifiers></_>
    <!-- stage 13 -->
    <_>
      <maxWeakCount>13</maxWeakCount>
      <stageThreshold>-2.0592508316040039e+00</stageThreshold>
      <weakClassifiers>
        <_>
          <internalNodes>
            0 -1 56 -13108481 -424433185 -103295113 -470970497 -69731889
            1004249551 -111673881 -940574721</internalNodes>
          <leafValues>
            -6.6559910774230957e-01 2.7684563770890236e-02</leafValues></_>
        <_>
          <internalNodes>
            0 -1 154 -70009579 849058241 -1119654503 -138228242
            2143940322 1609301674 665628726 -544736345</internalNodes>
          <leafValues>
            -4.4419705867767334e-01 2.6484215259552002e-01</leafValues></_>
        <_>
          <internalNodes>
            0 -1 77 -36310554 2147483647 -49739002 -402706985
            -1987617361 -1611672620 382538028 1171183568</internalNodes>
          <leafValues>
            -5.5970466136932373e-01 2.1811707317829132e-01</leafValues></_>
        <_>
          <internalNodes>
            0 -1 160 -1111639080 -704659522 -67108897 -100794371
            -1073889285 -1936879618 503021567 -100667110</internalNodes>
          <leafValues>
            -3.0185785889625549e-01 4.2906808853149414e-01</leafValues></_>
        <_>
          <internalNodes>
            0 -1 73 -841011961 -52595713 -586286500 -34178742 -238089980
            -601928703 -92210474 2004319011</internalNodes>
          <leafValues>
            -4.7474148869514465e-01 2.9521584510803223e-01</leafValues></_>
        <_>
          <internalNodes>
            0 -1 26 -221261061 -386683218 922396859 -738989397
            -1234843901 -614465537 2119564687 -210242117</internalNodes>
          <leafValues>
            -2.7191638946533203e-01 4.6019715070724487e-01</leafValues></_>
        <_>
          <internalNodes>
            0 -1 190 -1711623536 -1879397970 2107394525 -539243169
            869514235 -662262838 1002133945 -899682820</internalNodes>
          <leafValues>
            -4.4278693199157715e-01 2.7788189053535461e-01</leafValues></_>
        <_>
          <internalNodes>
            0 -1 176 -269549645 -268435536 503231991 1626865375
            359137170 -301993007 -1625490150 -132645929</internalNodes>
          <leafValues>
            -2.8011912107467651e-01 4.7067523002624512e-01</leafValues></_>
        <_>
          <internalNodes>
            0 -1 112 -1500568800 -2956533 1595349991 1775282070
            -23202372 -333730498 411793712 256916104</internalNodes>
          <leafValues>
            -6.2657564878463745e-01 1.9636301696300507e-01</leafValues></_>
        <_>
          <internalNodes>
            0 -1 40 -358815704 870317246 -1895139321 -684628111
            -110935294 290402611 -136455329 1966569834</internalNodes>
          <leafValues>
            -4.7522088885307312e-01 2.4780075252056122e-01</leafValues></_>
        <_>
          <internalNodes>
            0 -1 195 -1499996161 -274731657 1360118992 1330543430
            469412608 -168219089 465013657 1117780486</internalNodes>
          <leafValues>
            -4.5830723643302917e-01 2.6655679941177368e-01</leafValues></_>
        <_>
          <internalNodes>
            0 -1 135 2080370664 1037152015 1065352949 1735622521
            -35782659 -1397358628 -16806785 -1358996354</internalNodes>
          <leafValues>
            -3.1025499105453491e-01 3.7446784973144531e-01</leafValues></_>
        <_>
          <internalNodes>
            0 -1 60 1247161266 1258201598 -103160008 -1179677911
            -75007246 1368842960 -88114369 1946094463</internalNodes>
          <leafValues>
            -5.2045315504074097e-01 2.2942653298377991e-01</leafValues></_></weakClassifiers></_>
    <!-- stage 14 -->
    <_>
      <maxWeakCount>12</maxWeakCount>
      <stageThreshold>-1.7220849990844727e+00</stageThreshold>
      <weakClassifiers>
        <_>
          <internalNodes>
            0 -1 10 -8390789 -1037580033 2101991663 -202437633 -81798177
            1328468463 -2092442675 -990908417</internalNodes>
          <leafValues>
            -6.9947218894958496e-01 -7.2220556437969208e-02</leafValues></_>
        <_>
          <internalNodes>
            0 -1 175 -1009517583 -472656137 1900757970 -19963957
            294369673 1905249034 -1224232695 123188159</internalNodes>
          <leafValues>
            -5.3309005498886108e-01 1.6869869828224182e-01</leafValues></_>
        <_>
          <internalNodes>
            0 -1 113 1310784080 -344927783 1527371771 1816978798
            2070986493 -1251114925 1563245565 2138906830</internalNodes>
          <leafValues>
            -5.3350168466567993e-01 2.1486946940422058e-01</leafValues></_>
        <_>
          <internalNodes>
            0 -1 147 -3992 1340717600 -1023192166 -1076930037 94894899
            1531087574 1889890866 359128871</internalNodes>
          <leafValues>
            -5.9948289394378662e-01 2.2571741044521332e-01</leafValues></_>
        <_>
          <internalNodes>
            0 -1 49 -1562689016 -1564258298 -2134622204 -2116986621
            -1148057344 -226254204 1351833910 -135005833</internalNodes>
          <leafValues>
            -5.1522445678710938e-01 2.4624933302402496e-01</leafValues></_>
        <_>
          <internalNodes>
            0 -1 146 -36719856 2132251603 -749134047 -613688457
            -1143227731 1072621995 -335826416 -1191447813</internalNodes>
          <leafValues>
            -4.1343361139297485e-01 2.8307327628135681e-01</leafValues></_>
        <_>
          <internalNodes>
            0 -1 86 2000087788 -11330949 1108506847 1379684863
            1936978295 -215013359 1934261230 1060758483</internalNodes>
          <leafValues>
            -4.2049315571784973e-01 2.8164583444595337e-01</leafValues></_>
        <_>
          <internalNodes>
            0 -1 38 -1431654482 -1434286962 176491520 -684529529
            101965056 -1072221942 555381025 -176442506</internalNodes>
          <leafValues>
            -4.9303573369979858e-01 2.3881897330284119e-01</leafValues></_>
        <_>
          <internalNodes>
            0 -1 37 -1528909528 -562699201 1334554101 -11745498 -4197891
            1631529093 -2033621519 1999573943</internalNodes>
          <leafValues>
            -5.3857576847076416e-01 2.0402674376964569e-01</leafValues></_>
        <_>
          <internalNodes>
            0 -1 53 2138304507 1996652575 1929900190 -345372449 94106035
            1046071808 650901234 1078453328</internalNodes>
          <leafValues>
            -4.3062561750411987e-01 2.6206731796264648e-01</leafValues></_>
        <_>
          <internalNodes>
            0 -1 130 1446308520 -49286221 -822920755 1926959094
            -71565537 1957419161 -1099301607 716957899</internalNodes>
          <leafValues>
            -3.9492985606193542e-01 2.9634580016136169e-01</leafValues></_>
        <_>
          <internalNodes>
            0 -1 219 584554743 856124415 2031456539 731625254 198180799
            419558024 865030366 -328219640</internalNodes>
          <leafValues>
            -4.0260246396064758e-01 2.8888210654258728e-01</leafValues></_></weakClassifiers></_>
    <!-- stage 15 -->
    <_>
      <maxWeakCount>12</maxWeakCount>
      <stageThreshold>-1.9710407257080078e+00</stageThreshold>
      <weakClassifiers>
        <_>
          <internalNodes>
            0 -1 7 -619512834 -344327177 491496202 -1903711477
            -548667393 -8271978 -859423745 -67378698</internalNodes>
          <leafValues>
            -7.5681048631668091e-01 -1.1850685626268387e-01</leafValues></_>
        <_>
          <internalNodes>
            0 -1 94 825434278 1058640241 520197031 -587812 2056305031
            -1078351170 1569322410 201081818</internalNodes>
          <leafValues>
            -4.6518701314926147e-01 2.7171796560287476e-01</leafValues></_>
        <_>
          <internalNodes>
            0 -1 34 -1416977846 36077826 -1329135006 116107619 54752576
            24332309 20058690 1568657527</internalNodes>
          <leafValues>
            -6.6256570816040039e-01 1.8653264641761780e-01</leafValues></_>
        <_>
          <internalNodes>
            0 -1 28 -420748290 1945166808 -166648524 -9434034
            -1345630236 1675812818 -138069505 -10001610</internalNodes>
          <leafValues>
            -3.8350528478622437e-01 3.3979821205139160e-01</leafValues></_>
        <_>
          <internalNodes>
            0 -1 59 -134747412 1995910826 2147203829 2079533668
            -21213828 1727364988 -11113 -672156089</internalNodes>
          <leafValues>
            -3.1661406159400940e-01 4.0472072362899780e-01</leafValues></_>
        <_>
          <internalNodes>
            0 -1 159 -1088358520 -2046077031 42719429 -817491794
            -1238632501 13824969 856421809 457060504</internalNodes>
          <leafValues>
            -6.0926628112792969e-01 2.1865151822566986e-01</leafValues></_>
        <_>
          <internalNodes>
            0 -1 107 2096007444 1140321432 2108140956 -363631302
            -741745763 1938411992 -1081098472 -1214287009</internalNodes>
          <leafValues>
            -4.4983604550361633e-01 2.6214084029197693e-01</leafValues></_>
        <_>
          <internalNodes>
            0 -1 55 -473957653 861086210 -653548873 -317020730 52427771
            1375949059 1934750434 -1001917706</internalNodes>
          <leafValues>
            -3.5238930583000183e-01 3.3017253875732422e-01</leafValues></_>
        <_>
          <internalNodes>
            0 -1 172 -1105450224 -578276457 1648549727 -643942466
            -1948411603 -2058951763 434993628 452983002</internalNodes>
          <leafValues>
            -4.2808651924133301e-01 2.7643138170242310e-01</leafValues></_>
        <_>
          <internalNodes>
            0 -1 201 -949487872 -1041267387 -1820224766 1424937154
            2068836986 -2099197239 132980776 -717231109</internalNodes>
          <leafValues>
            -4.6110600233078003e-01 2.7585265040397644e-01</leafValues></_>
        <_>
          <internalNodes>
            0 -1 23 -470815230 -616829270 -596652591 -949322312
            -1887439317 40883702 234737995 -671875085</internalNodes>
          <leafValues>
            -2.8843015432357788e-01 3.9827644824981689e-01</leafValues></_>
        <_>
          <internalNodes>
            0 -1 118 -622863116 -74064949 -49619170 1598334935
            -1044376075 2073803051 1073688588 617063698</internalNodes>
          <leafValues>
            -5.5548626184463501e-01 2.2446252405643463e-01</leafValues></_></weakClassifiers></_>
    <!-- stage 16 -->
    <_>
      <maxWeakCount>17</maxWeakCount>
      <stageThreshold>-1.8369847536087036e+00</stageThreshold>
      <weakClassifiers>
        <_>
          <internalNodes>
            0 -1 150 -1092767746 -189505 -2016498689 -11568692
            -1951810561 -1145261060 257367535 -1150842434</internalNodes>
          <leafValues>
            -6.8084675073623657e-01 -9.7668558359146118e-02</leafValues></_>
        <_>
          <internalNodes>
            0 -1 45 831521181 -740422196 -1933260452 165511120
            -1350346256 -1344675613 -1630744376 -318957067</internalNodes>
          <leafValues>
            -4.9678745865821838e-01 1.4412829279899597e-01</leafValues></_>
        <_>
          <internalNodes>
            0 -1 67 -548049132 -231821617 -705299057 -17871729
            -545997477 859814335 -108194755 2078244727</internalNodes>
          <leafValues>
            -3.4217071533203125e-01 2.6628625392913818e-01</leafValues></_>
        <_>
          <internalNodes>
            0 -1 181 -259575483 679935887 -33493673 -338170594
            -1974792168 -1232111733 384769442 1109588064</internalNodes>
          <leafValues>
            -5.1759511232376099e-01 1.8041434884071350e-01</leafValues></_>
        <_>
          <internalNodes>
            0 -1 191 -1160002439 -1340416098 -1563381671 -1560389436
            -2069169157 -2118180723 -1159976435 -1795289867</internalNodes>
          <leafValues>
            -3.8697606325149536e-01 2.5473704934120178e-01</leafValues></_>
        <_>
          <internalNodes>
            0 -1 174 -1728841759 1205786622 -318661156 -661661781
            1054824353 1027497355 -1884456071 -1993965181</internalNodes>
          <leafValues>
            -3.5292515158653259e-01 2.6304754614830017e-01</leafValues></_>
        <_>
          <internalNodes>
            0 -1 215 1033637389 -1475695070 2080890767 -1127166254
            495425976 -1081214325 2028149729 -570559508</internalNodes>
          <leafValues>
            -4.4916656613349915e-01 2.2029574215412140e-01</leafValues></_>
        <_>
          <internalNodes>
            0 -1 19 1285318520 1682959997 1275940300 1088385262
            2070641272 1326129210 -381029766 1422383174</internalNodes>
          <leafValues>
            -4.8491129279136658e-01 1.8352065980434418e-01</leafValues></_>
        <_>
          <internalNodes>
            0 -1 0 -1350653194 715784924 810909779 -1959899446
            -148900892 -2094038600 1290505544 837632</internalNodes>
          <leafValues>
            -6.2614673376083374e-01 1.3590976595878601e-01</leafValues></_>
        <_>
          <internalNodes>
            0 -1 102 -35657637 -227331213 2113682395 2147443382
            -142693703 -12617869 2147252217 -10521602</internalNodes>
          <leafValues>
            -2.4047991633415222e-01 4.2490905523300171e-01</leafValues></_>
        <_>
          <internalNodes>
            0 -1 177 1054060339 -270744587 1590928855 -426247226
            292776833 265941969 292662669 410517246</internalNodes>
          <leafValues>
            -4.7156226634979248e-01 1.9929145276546478e-01</leafValues></_>
        <_>
          <internalNodes>
            0 -1 92 2139041558 2104719638 2030423359 -1461733197
            1460370276 1934200852 2041314295 1786608900</internalNodes>
          <leafValues>
            -5.1718062162399292e-01 1.7574575543403625e-01</leafValues></_>
        <_>
          <internalNodes>
            0 -1 223 -1429036131 -359729889 -15607521 -462980801
            1669577296 -284478776 730544912 -495783150</internalNodes>
          <leafValues>
            -4.3252605199813843e-01 2.1920195221900940e-01</leafValues></_>
        <_>
          <internalNodes>
            0 -1 66 1608358540 1222623918 -797303393 1888669420
            -580435865 2018197791 1590083823 -169099713</internalNodes>
          <leafValues>
            -3.3967015147209167e-01 2.8122317790985107e-01</leafValues></_>
        <_>
          <internalNodes>
            0 -1 128 384823072 2102382644 -573852452 -144281434
            -1144806788 -136904470 -1999662739 298299191</internalNodes>
          <leafValues>
            -4.0910282731056213e-01 2.2973760962486267e-01</leafValues></_>
        <_>
          <internalNodes>
            0 -1 151 184349620 619721054 -250309994 -214723626 999145452
            -1086008387 763041535 -1778832856</internalNodes>
          <leafValues>
            -4.2365396022796631e-01 2.1158942580223083e-01</leafValues></_>
        <_>
          <internalNodes>
            0 -1 121 2056137516 -1146125941 1997403701 637882677
            900870768 14270602 -254267343 -23226088</internalNodes>
          <leafValues>
            -5.2415961027145386e-01 1.8107438087463379e-01</leafValues></_></weakClassifiers></_>
    <!-- stage 17 -->
    <_>
      <maxWeakCount>20</maxWeakCount>
      <stageThreshold>-1.9769914150238037e+00</stageThreshold>
      <weakClassifiers>
        <_>
          <internalNodes>
            0 -1 210 -1022165129 -135085761 -854171817 -44119043
            -485794841 -410353404 152039933 -1885864206</internalNodes>
          <leafValues>
            -6.5965807437896729e-01 -1.0134655982255936e-01</leafValues></_>
        <_>
          <internalNodes>
            0 -1 100 -992736580 523715054 -800690529 2136634363
            -930810892 -178192279 2078272446 494894608</internalNodes>
          <leafValues>
            -5.4189789295196533e-01 1.0108356177806854e-01</leafValues></_>
        <_>
          <internalNodes>
            0 -1 194 1575955431 1610595258 -32771 -8462850 -33587318
            -620822537 1879006327 -1025312518</internalNodes>
          <leafValues>
            -2.3170168697834015e-01 4.0495193004608154e-01</leafValues></_>
        <_>
          <internalNodes>
            0 -1 85 -1629510540 -1294215585 1293343215 982757278
            2072975352 2116494066 -1047174659 1058486576</internalNodes>
          <leafValues>
            -4.5148304104804993e-01 1.9925312697887421e-01</leafValues></_>
        <_>
          <internalNodes>
            0 -1 169 2146440756 -1411957282 -939337661 -2087197885
            936364021 262841175 1806198386 195093494</internalNodes>
          <leafValues>
            -5.6575185060501099e-01 1.8315252661705017e-01</leafValues></_>
        <_>
          <internalNodes>
            0 -1 36 -586888416 919261407 1032004622 754584654 -75695508
            1902829871 2074738540 1195339846</internalNodes>
          <leafValues>
            -5.5696302652359009e-01 1.6308060288429260e-01</leafValues></_>
        <_>
          <internalNodes>
            0 -1 13 -544547245 -369080193 253400529 49043662 -703104690
            1242094425 1118108128 1090412362</internalNodes>
          <leafValues>
            -5.1537525653839111e-01 1.5979903936386108e-01</leafValues></_>
        <_>
          <internalNodes>
            0 -1 227 -1358967179 327723862 -1370504813 133863314
            -1428192016 -124633077 -1465339890 1480579964</internalNodes>
          <leafValues>
            -3.8621658086776733e-01 2.4201458692550659e-01</leafValues></_>
        <_>
          <internalNodes>
            0 -1 105 1677189425 974168737 1158775249 -1361786605
            2126990904 2065406079 -295719148 593384562</internalNodes>
          <leafValues>
            -5.1244485378265381e-01 1.6342869400978088e-01</leafValues></_>
        <_>
          <internalNodes>
            0 -1 161 -189350827 -268435620 -285971077 -4849801
            -1374487622 -903365306 -1263272034 -2046440169</internalNodes>
          <leafValues>
            -2.5027820467948914e-01 3.4893864393234253e-01</leafValues></_>
        <_>
          <internalNodes>
            0 -1 148 -439391712 -1920826469 -1732150790 1029554763
            -645144901 1609468106 1988566329 817068715</internalNodes>
          <leafValues>
            -5.2712005376815796e-01 1.6589796543121338e-01</leafValues></_>
        <_>
          <internalNodes>
            0 -1 214 -1561923763 -1258387725 -1726931473 1375469772
            196807435 -1441985878 1118523514 -788706084</internalNodes>
          <leafValues>
            -3.5619750618934631e-01 2.4645844101905823e-01</leafValues></_>
        <_>
          <internalNodes>
            0 -1 17 37750210 -2117130619 1159879526 1122388172
            1340824682 -1304018910 -1307479510 1688726648</internalNodes>
          <leafValues>
            -5.2406609058380127e-01 1.7047177255153656e-01</leafValues></_>
        <_>
          <internalNodes>
            0 -1 180 -1378943203 836230543 830595052 776903240
            1634404172 929763503 973758472 6575936</internalNodes>
          <leafValues>
            -7.5731587409973145e-01 1.0475616902112961e-01</leafValues></_>
        <_>
          <internalNodes>
            0 -1 119 -582100532 1225640920 -545218594 631606216
            1124687737 2144504539 939336980 1994237644</internalNodes>
          <leafValues>
            -5.6010526418685913e-01 1.3675834238529205e-01</leafValues></_>
        <_>
          <internalNodes>
            0 -1 116 -726204932 -331024507 -1475092012 -1607432944
            -2008092498 679197204 -1393684141 -1997362187</internalNodes>
          <leafValues>
            -4.0655612945556641e-01 2.1991692483425140e-01</leafValues></_>
        <_>
          <internalNodes>
            0 -1 99 1375708164 -554588579 420377984 208790030 2043222994
            -1081365752 1069764536 892670650</internalNodes>
          <leafValues>
            -5.8364331722259521e-01 1.5411561727523804e-01</leafValues></_>
        <_>
          <internalNodes>
            0 -1 138 -657407868 -48367894 1929241119 -226690431
            -226318176 572322120 -701762358 1362854058</internalNodes>
          <leafValues>
            -2.8793835639953613e-01 3.1651169061660767e-01</leafValues></_>
        <_>
          <internalNodes>
            0 -1 202 -1074159455 769342083 -167431470 1243216522
            731979911 -857685952 -1735519790 1516104015</internalNodes>
          <leafValues>
            -4.7751718759536743e-01 1.8806512653827667e-01</leafValues></_>
        <_>
          <internalNodes>
            0 -1 170 -190930992 2076743838 -939308579 1531638593
            529006579 -1651851062 1797073213 1081308631</internalNodes>
          <leafValues>
            -3.6217731237411499e-01 2.4788552522659302e-01</leafValues></_></weakClassifiers></_>
    <!-- stage 18 -->
    <_>
      <maxWeakCount>20</maxWeakCount>
      <stageThreshold>-1.9577547311782837e+00</stageThreshold>
      <weakClassifiers>
        <_>
          <internalNodes>
            0 -1 192 -1226843649 -172780065 -1391994409 1603763606
            -230966828 -329523713 -6226475 -464797756</internalNodes>
          <leafValues>
            -7.1940070390701294e-01 -2.6034349203109741e-01</leafValues></_>
        <_>
          <internalNodes>
            0 -1 208 -2084634635 -168296705 -34709636 1978891948
            671084531 -1208099841 -633898241 -1884036869</internalNodes>
          <leafValues>
            -3.0609735846519470e-01 3.3989599347114563e-01</leafValues></_>
        <_>
          <internalNodes>
            0 -1 186 598210542 -1292390401 -570437125 -269892387
            -167797319 -279470659 -1614832273 -354422185</internalNodes>
          <leafValues>
            -2.3153786361217499e-01 3.7544724345207214e-01</leafValues></_>
        <_>
          <internalNodes>
            0 -1 137 1327630565 -137890393 -1388261381 -415087717
            2076946988 1318842624 -184735568 1931536376</internalNodes>
          <leafValues>
            -4.1142871975898743e-01 2.0767246186733246e-01</leafValues></_>
        <_>
          <internalNodes>
            0 -1 62 1736238708 -1273528253 1469463981 365350095
            1334832821 1895811290 1653567283 1998528263</internalNodes>
          <leafValues>
            -4.6267983317375183e-01 2.1486456692218781e-01</leafValues></_>
        <_>
          <internalNodes>
            0 -1 218 716837311 1058681783 -50212085 -1412781228
            1502507499 1636161410 2006924279 -1908224448</internalNodes>
          <leafValues>
            -5.5731886625289917e-01 1.6770021617412567e-01</leafValues></_>
        <_>
          <internalNodes>
            0 -1 72 -1410718432 -439438998 -454188512 -35876132
            438382532 -61326971 -1162377196 -41130</internalNodes>
          <leafValues>
            -4.3458861112594604e-01 2.0117035508155823e-01</leafValues></_>
        <_>
          <internalNodes>
            0 -1 198 1973403571 -722477683 -951461929 -41036340
            1389279033 1085478926 -1109704930 1357845342</internalNodes>
          <leafValues>
            -3.2056230306625366e-01 2.7376860380172729e-01</leafValues></_>
        <_>
          <internalNodes>
            0 -1 213 -2075161325 324425467 -528457837 79870674
            -404895552 -494779254 -358741799 -856753414</internalNodes>
          <leafValues>
            -3.3226063847541809e-01 2.9704305529594421e-01</leafValues></_>
        <_>
          <internalNodes>
            0 -1 82 -486582358 -318788090 1275445291 895471392
            -607511234 1036929413 -343518571 -614467889</internalNodes>
          <leafValues>
            -2.8670975565910339e-01 2.8914490342140198e-01</leafValues></_>
        <_>
          <internalNodes>
            0 -1 230 402947303 -5983659 -552038915 416322884 1873533845
            -3147384 -4466050 -1073841291</internalNodes>
          <leafValues>
            -3.0843746662139893e-01 2.9343837499618530e-01</leafValues></_>
        <_>
          <internalNodes>
            0 -1 8 252175222 -1074841778 25373165 310854447 -32562454
            -1476312500 -549492520 -400373558</internalNodes>
          <leafValues>
            -3.2189553976058960e-01 2.7867323160171509e-01</leafValues></_>
        <_>
          <internalNodes>
            0 -1 123 -1076909276 1959892465 -1794734240 1965049174
            2072595421 1887450283 295689593 410101804</internalNodes>
          <leafValues>
            -5.6169742345809937e-01 1.4564710855484009e-01</leafValues></_>
        <_>
          <internalNodes>
            0 -1 44 -513372444 1459490853 -1623274247 -37520998
            1107692756 -1560206195 -87068491 2020692793</internalNodes>
          <leafValues>
            -4.3582662940025330e-01 1.8194614350795746e-01</leafValues></_>
        <_>
          <internalNodes>
            0 -1 3 -525851222 1548641367 1963684014 -1160893713
            316624982 1410824835 462036222 216986708</internalNodes>
          <leafValues>
            -4.4748753309249878e-01 1.8338583409786224e-01</leafValues></_>
        <_>
          <internalNodes>
            0 -1 64 1718775716 774296071 1162039126 -821768818
            -182719572 1158381697 2042683484 -1072740103</internalNodes>
          <leafValues>
            -4.8558956384658813e-01 1.6536386311054230e-01</leafValues></_>
        <_>
          <internalNodes>
            0 -1 228 -1433354467 -52549684 -2125984674 -318863154
            331589796 952684739 -502904641 -965547393</internalNodes>
          <leafValues>
            -3.3004045486450195e-01 2.6128026843070984e-01</leafValues></_>
        <_>
          <internalNodes>
            0 -1 42 474337276 -580976166 1276919856 1604058444
            2114669379 1392969899 -627568549 577716528</internalNodes>
          <leafValues>
            -3.6530482769012451e-01 2.3753622174263000e-01</leafValues></_>
        <_>
          <internalNodes>
            0 -1 76 -705562156 1435046359 1493192484 -811904217
            285760479 -618939498 1090993148 -749212415</internalNodes>
          <leafValues>
            -3.9429095387458801e-01 2.2646862268447876e-01</leafValues></_>
        <_>
          <internalNodes>
            0 -1 173 -1591066456 -2001829688 -1056876075 -102870666
            825872829 162058402 520551209 419321124</internalNodes>
          <leafValues>
            -5.9444004297256470e-01 1.3346436619758606e-01</leafValues></_></weakClassifiers></_>
    <!-- stage 19 -->
    <_>
      <maxWeakCount>17</maxWeakCount>
      <stageThreshold>-2.0437114238739014e+00</stageThreshold>
      <weakClassifiers>
        <_>
          <internalNodes>
            0 -1 192 -1226835457 -44573217 -1923757601 -7504746
            -161489956 -300164609 -3937067 -465404220</internalNodes>
          <leafValues>
            -7.5225871801376343e-01 -2.3401081562042236e-01</leafValues></_>
        <_>
          <internalNodes>
            0 -1 153 -1949323268 -208940340 -851015311 1862618304
            972195099 1000332900 707988473 658981641</internalNodes>
          <leafValues>
            -5.4428476095199585e-01 1.1152347177267075e-01</leafValues></_>
        <_>
          <internalNodes>
            0 -1 12 439565106 798961463 1821341961 1859937390 -499948725
            -604243017 -1343489518 1279778534</internalNodes>
          <leafValues>
            -4.5418542623519897e-01 2.0330071449279785e-01</leafValues></_>
        <_>
          <internalNodes>
            0 -1 24 -1151988723 931836682 2128502096 -486702656
            996136414 -1154547583 -1972380018 1153384800</internalNodes>
          <leafValues>
            -3.9039918780326843e-01 2.3920230567455292e-01</leafValues></_>
        <_>
          <internalNodes>
            0 -1 141 1696270129 -606080956 -942681741 1473382990
            -184336453 -995456054 996629305 1928838009</internalNodes>
          <leafValues>
            -3.5109043121337891e-01 2.5051027536392212e-01</leafValues></_>
        <_>
          <internalNodes>
            0 -1 182 -76355587 985128702 -4 -20976002 2143247485
            -4563460 -1073930657 -653095338</internalNodes>
          <leafValues>
            -2.5974822044372559e-01 3.6119103431701660e-01</leafValues></_>
        <_>
          <internalNodes>
            0 -1 184 -1099466764 114425823 2130823155 -1370565871
            971188792 665552104 667626176 4369472</internalNodes>
          <leafValues>
            -6.9586384296417236e-01 1.2460439652204514e-01</leafValues></_>
        <_>
          <internalNodes>
            0 -1 193 1656647471 -687870018 -536871555 -1073758748
            -378554446 -1426214913 1530879711 -517356822</internalNodes>
          <leafValues>
            -2.4540537595748901e-01 3.5791373252868652e-01</leafValues></_>
        <_>
          <internalNodes>
            0 -1 79 1961711083 -545003118 156462048 1608371645
            2007156719 2134999056 561737595 -1514543696</internalNodes>
          <leafValues>
            -2.8773599863052368e-01 2.9695445299148560e-01</leafValues></_>
        <_>
          <internalNodes>
            0 -1 120 -1373179376 -581383858 487193476 -1556053119
            721403380 2088928405 777794869 1336174588</internalNodes>
          <leafValues>
            -5.7321912050247192e-01 1.6066524386405945e-01</leafValues></_>
        <_>
          <internalNodes>
            0 -1 98 241148769 -244957093 1159271423 1391658906
            -1332244333 441389323 1141750895 2146852860</internalNodes>
          <leafValues>
            -3.1004351377487183e-01 2.8895378112792969e-01</leafValues></_>
        <_>
          <internalNodes>
            0 -1 83 -489530378 -706625080 -117047897 2106337167
            1087565926 1308725384 1348592631 388956131</internalNodes>
          <leafValues>
            -3.0743184685707092e-01 2.8100746870040894e-01</leafValues></_>
        <_>
          <internalNodes>
            0 -1 11 -278499009 -46172750 -41963777 -885076107 -8915205
            -1073791753 -1182798721 -926361152</internalNodes>
          <leafValues>
            -2.7382078766822815e-01 3.2181376218795776e-01</leafValues></_>
        <_>
          <internalNodes>
            0 -1 209 172623221 -1671487666 -2112992435 1959018974
            1800256511 1065400450 429725949 29457259</internalNodes>
          <leafValues>
            -4.4526743888854980e-01 1.9693025946617126e-01</leafValues></_>
        <_>
          <internalNodes>
            0 -1 35 2128521448 -291340087 1426862383 390987804 548017356
            1451430531 958596509 56236919</internalNodes>
          <leafValues>
            -5.0713092088699341e-01 1.7220993340015411e-01</leafValues></_>
        <_>
          <internalNodes>
            0 -1 224 -1568012621 1116720899 -821469749 597044865
            839863455 1368309962 1178781331 -500840448</internalNodes>
          <leafValues>
            -4.6209636330604553e-01 1.8843565881252289e-01</leafValues></_>
        <_>
          <internalNodes>
            0 -1 212 250761044 -1110215937 -1870075254 1004503646
            -913625291 -540054574 -1706374956 267280</internalNodes>
          <leafValues>
            -6.7588436603546143e-01 1.2301301956176758e-01</leafValues></_></weakClassifiers></_></stages>
  <features>
    <_>
      <rect>
        0 0 2 2</rect></_>
    <_>
      <rect>
        0 0 2 3</rect></_>
    <_>
      <rect>
        0 0 2 4</rect></_>
    <_>
      <rect>
        0 0 2 5</rect></_>
    <_>
      <rect>
        0 0 3 5</rect></_>
    <_>
      <rect>
        0 0 5 3</rect></_>
    <_>
      <rect>
        0 0 6 2</rect></_>
    <_>
      <rect>
        0 0 6 6</rect></_>
    <_>
      <rect>
        0 1 1 3</rect></_>
    <_>
      <rect>
        0 1 2 4</rect></_>
    <_>
      <rect>
        0 1 3 4</rect></_>
    <_>
      <rect>
        0 2 1 4</rect></_>
    <_>
      <rect>
        0 2 2 3</rect></_>
    <_>
      <rect>
        0 2 3 4</rect></_>
    <_>
      <rect>
        0 2 4 4</rect></_>
    <_>
      <rect>
        0 2 6 6</rect></_>
    <_>
      <rect>
        0 3 1 2</rect></_>
    <_>
      <rect>
        0 3 2 4</rect></_>
    <_>
      <rect>
        0 3 3 3</rect></_>
    <_>
      <rect>
        0 4 2 3</rect></_>
    <_>
      <rect>
        0 4 2 4</rect></_>
    <_>
      <rect>
        0 4 2 5</rect></_>
    <_>
      <rect>
        0 5 4 5</rect></_>
    <_>
      <rect>
        0 6 1 2</rect></_>
    <_>
      <rect>
        0 6 1 4</rect></_>
    <_>
      <rect>
        0 6 2 2</rect></_>
    <_>
      <rect>
        0 6 2 4</rect></_>
    <_>
      <rect>
        0 7 1 2</rect></_>
    <_>
      <rect>
        0 7 4 2</rect></_>
    <_>
      <rect>
        0 8 1 2</rect></_>
    <_>
      <rect>
        0 8 2 3</rect></_>
    <_>
      <rect>
        0 8 3 3</rect></_>
    <_>
      <rect>
        0 9 1 2</rect></_>
    <_>
      <rect>
        0 9 2 3</rect></_>
    <_>
      <rect>
        0 10 1 2</rect></_>
    <_>
      <rect>
        0 10 3 2</rect></_>
    <_>
      <rect>
        0 10 4 2</rect></_>
    <_>
      <rect>
        0 10 5 3</rect></_>
    <_>
      <rect>
        0 11 1 2</rect></_>
    <_>
      <rect>
        0 11 3 3</rect></_>
    <_>
      <rect>
        0 12 2 2</rect></_>
    <_>
      <rect>
        0 13 2 2</rect></_>
    <_>
      <rect>
        0 13 3 1</rect></_>
    <_>
      <rect>
        0 13 3 2</rect></_>
    <_>
      <rect>
        0 13 4 2</rect></_>
    <_>
      <rect>
        0 14 1 2</rect></_>
    <_>
      <rect>
        0 14 2 2</rect></_>
    <_>
      <rect>
        0 14 3 2</rect></_>
    <_>
      <rect>
        0 14 6 2</rect></_>
    <_>
      <rect>
        0 15 1 1</rect></_>
    <_>
      <rect>
        0 16 3 1</rect></_>
    <_>
      <rect>
        0 17 1 1</rect></_>
    <_>
      <rect>
        0 17 5 1</rect></_>
    <_>
      <rect>
        1 0 2 3</rect></_>
    <_>
      <rect>
        1 0 3 2</rect></_>
    <_>
      <rect>
        1 1 2 3</rect></_>
    <_>
      <rect>
        1 1 3 5</rect></_>
    <_>
      <rect>
        1 1 4 3</rect></_>
    <_>
      <rect>
        1 3 4 4</rect></_>
    <_>
      <rect>
        1 4 2 5</rect></_>
    <_>
      <rect>
        1 4 4 4</rect></_>
    <_>
      <rect>
        1 6 2 3</rect></_>
    <_>
      <rect>
        1 7 4 4</rect></_>
    <_>
      <rect>
        1 8 1 2</rect></_>
    <_>
      <rect>
        1 8 6 4</rect></_>
    <_>
      <rect>
        1 9 6 3</rect></_>
    <_>
      <rect>
        1 10 2 3</rect></_>
    <_>
      <rect>
        1 10 3 2</rect></_>
    <_>
      <rect>
        1 11 3 2</rect></_>
    <_>
      <rect>
        1 12 4 2</rect></_>
    <_>
      <rect>
        1 14 1 2</rect></_>
    <_>
      <rect>
        1 14 2 2</rect></_>
    <_>
      <rect>
        1 16 1 1</rect></_>
    <_>
      <rect>
        1 17 2 1</rect></_>
    <_>
      <rect>
        1 17 3 1</rect></_>
    <_>
      <rect>
        2 0 6 1</rect></_>
    <_>
      <rect>
        2 0 6 3</rect></_>
    <_>
      <rect>
        2 0 6 4</rect></_>
    <_>
      <rect>
        2 1 3 6</rect></_>
    <_>
      <rect>
        2 1 6 6</rect></_>
    <_>
      <rect>
        2 2 3 3</rect></_>
    <_>
      <rect>
        2 2 3 4</rect></_>
    <_>
      <rect>
        2 4 2 5</rect></_>
    <_>
      <rect>
        2 4 5 3</rect></_>
    <_>
      <rect>
        2 9 3 3</rect></_>
    <_>
      <rect>
        2 12 4 2</rect></_>
    <_>
      <rect>
        2 13 2 2</rect></_>
    <_>
      <rect>
        2 13 4 2</rect></_>
    <_>
      <rect>
        2 14 2 2</rect></_>
    <_>
      <rect>
        2 14 6 2</rect></_>
    <_>
      <rect>
        2 16 3 1</rect></_>
    <_>
      <rect>
        2 16 4 1</rect></_>
    <_>
      <rect>
        2 17 3 1</rect></_>
    <_>
      <rect>
        2 17 4 1</rect></_>
    <_>
      <rect>
        2 17 6 1</rect></_>
    <_>
      <rect>
        3 9 3 3</rect></_>
    <_>
      <rect>
        3 10 4 3</rect></_>
    <_>
      <rect>
        3 11 3 3</rect></_>
    <_>
      <rect>
        3 11 4 2</rect></_>
    <_>
      <rect>
        3 13 4 2</rect></_>
    <_>
      <rect>
        3 14 2 2</rect></_>
    <_>
      <rect>
        3 14 4 2</rect></_>
    <_>
      <rect>
        3 15 3 1</rect></_>
    <_>
      <rect>
        3 16 2 1</rect></_>
    <_>
      <rect>
        3 17 2 1</rect></_>
    <_>
      <rect>
        3 17 4 1</rect></_>
    <_>
      <rect>
        4 1 3 4</rect></_>
    <_>
      <rect>
        4 8 4 2</rect></_>
    <_>
      <rect>
        4 10 2 3</rect></_>
    <_>
      <rect>
        4 11 3 3</rect></_>
    <_>
      <rect>
        4 11 4 3</rect></_>
    <_>
      <rect>
        4 11 5 3</rect></_>
    <_>
      <rect>
        4 12 4 2</rect></_>
    <_>
      <rect>
        4 14 4 2</rect></_>
    <_>
      <rect>
        4 16 2 1</rect></_>
    <_>
      <rect>
        4 16 5 1</rect></_>
    <_>
      <rect>
        5 0 1 1</rect></_>
    <_>
      <rect>
        5 1 4 5</rect></_>
    <_>
      <rect>
        5 2 5 3</rect></_>
    <_>
      <rect>
        5 2 5 4</rect></_>
    <_>
      <rect>
        5 4 4 5</rect></_>
    <_>
      <rect>
        5 8 4 4</rect></_>
    <_>
      <rect>
        5 9 4 3</rect></_>
    <_>
      <rect>
        5 12 5 2</rect></_>
    <_>
      <rect>
        5 14 4 2</rect></_>
    <_>
      <rect>
        5 14 5 2</rect></_>
    <_>
      <rect>
        5 15 1 1</rect></_>
    <_>
      <rect>
        5 16 5 1</rect></_>
    <_>
      <rect>
        6 2 3 2</rect></_>
    <_>
      <rect>
        6 4 3 3</rect></_>
    <_>
      <rect>
        6 6 3 3</rect></_>
    <_>
      <rect>
        6 8 4 2</rect></_>
    <_>
      <rect>
        6 10 3 2</rect></_>
    <_>
      <rect>
        6 12 4 2</rect></_>
    <_>
      <rect>
        6 14 3 2</rect></_>
    <_>
      <rect>
        6 16 4 1</rect></_>
    <_>
      <rect>
        7 1 4 5</rect></_>
    <_>
      <rect>
        7 5 3 5</rect></_>
    <_>
      <rect>
        7 6 1 1</rect></_>
    <_>
      <rect>
        7 9 3 3</rect></_>
    <_>
      <rect>
        7 9 4 2</rect></_>
    <_>
      <rect>
        7 12 3 2</rect></_>
    <_>
      <rect>
        7 12 4 2</rect></_>
    <_>
      <rect>
        7 13 3 2</rect></_>
    <_>
      <rect>
        7 13 4 2</rect></_>
    <_>
      <rect>
        8 0 4 6</rect></_>
    <_>
      <rect>
        8 3 3 1</rect></_>
    <_>
      <rect>
        8 5 4 5</rect></_>
    <_>
      <rect>
        8 10 4 2</rect></_>
    <_>
      <rect>
        8 13 4 2</rect></_>
    <_>
      <rect>
        8 14 4 2</rect></_>
    <_>
      <rect>
        8 16 2 1</rect></_>
    <_>
      <rect>
        8 16 3 1</rect></_>
    <_>
      <rect>
        9 3 3 4</rect></_>
    <_>
      <rect>
        9 8 3 4</rect></_>
    <_>
      <rect>
        9 11 3 2</rect></_>
    <_>
      <rect>
        10 5 3 5</rect></_>
    <_>
      <rect>
        10 6 3 4</rect></_>
    <_>
      <rect>
        10 12 3 2</rect></_>
    <_>
      <rect>
        10 13 2 2</rect></_>
    <_>
      <rect>
        10 14 3 2</rect></_>
    <_>
      <rect>
        11 0 3 1</rect></_>
    <_>
      <rect>
        11 0 3 3</rect></_>
    <_>
      <rect>
        11 0 3 5</rect></_>
    <_>
      <rect>
        11 1 3 5</rect></_>
    <_>
      <rect>
        11 2 2 4</rect></_>
    <_>
      <rect>
        11 3 3 4</rect></_>
    <_>
      <rect>
        11 3 3 5</rect></_>
    <_>
      <rect>
        11 6 3 3</rect></_>
    <_>
      <rect>
        11 7 2 4</rect></_>
    <_>
      <rect>
        11 11 3 3</rect></_>
    <_>
      <rect>
        11 14 2 2</rect></_>
    <_>
      <rect>
        11 14 3 2</rect></_>
    <_>
      <rect>
        11 15 2 1</rect></_>
    <_>
      <rect>
        12 2 2 3</rect></_>
    <_>
      <rect>
        12 3 2 3</rect></_>
    <_>
      <rect>
        12 4 2 4</rect></_>
    <_>
      <rect>
        12 5 2 3</rect></_>
    <_>
      <rect>
        12 5 2 5</rect></_>
    <_>
      <rect>
        12 8 2 3</rect></_>
    <_>
      <rect>
        13 0 2 3</rect></_>
    <_>
      <rect>
        13 0 2 5</rect></_>
    <_>
      <rect>
        13 1 1 4</rect></_>
    <_>
      <rect>
        13 1 2 2</rect></_>
    <_>
      <rect>
        13 2 2 3</rect></_>
    <_>
      <rect>
        13 3 2 3</rect></_>
    <_>
      <rect>
        13 3 2 4</rect></_>
    <_>
      <rect>
        13 6 2 3</rect></_>
    <_>
      <rect>
        13 9 2 3</rect></_>
    <_>
      <rect>
        13 10 2 3</rect></_>
    <_>
      <rect>
        13 11 2 3</rect></_>
    <_>
      <rect>
        13 16 1 1</rect></_>
    <_>
      <rect>
        14 0 2 3</rect></_>
    <_>
      <rect>
        14 1 2 5</rect></_>
    <_>
      <rect>
        14 1 2 6</rect></_>
    <_>
      <rect>
        14 2 2 3</rect></_>
    <_>
      <rect>
        14 2 2 4</rect></_>
    <_>
      <rect>
        14 2 2 6</rect></_>
    <_>
      <rect>
        14 3 2 3</rect></_>
    <_>
      <rect>
        14 4 2 4</rect></_>
    <_>
      <rect>
        14 5 2 3</rect></_>
    <_>
      <rect>
        14 6 2 2</rect></_>
    <_>
      <rect>
        14 6 2 4</rect></_>
    <_>
      <rect>
        14 7 2 4</rect></_>
    <_>
      <rect>
        14 8 2 2</rect></_>
    <_>
      <rect>
        14 8 2 3</rect></_>
    <_>
      <rect>
        14 9 2 3</rect></_>
    <_>
      <rect>
        14 11 2 3</rect></_>
    <_>
      <rect>
        14 13 2 2</rect></_>
    <_>
      <rect>
        14 14 2 2</rect></_>
    <_>
      <rect>
        14 15 2 1</rect></_>
    <_>
      <rect>
        15 0 1 1</rect></_>
    <_>
      <rect>
        15 0 1 3</rect></_>
    <_>
      <rect>
        15 3 1 2</rect></_>
    <_>
      <rect>
        15 16 1 1</rect></_>
    <_>
      <rect>
        16 10 1 3</rect></_>
    <_>
      <rect>
        16 17 1 1</rect></_>
    <_>
      <rect>
        17 0 1 4</rect></_>
    <_>
      <rect>
        17 1 1 4</rect></_>
    <_>
      <rect>
        17 2 1 5</rect></_>
    <_>
      <rect>
        17 3 1 2</rect></_>
    <_>
      <rect>
        17 4 1 2</rect></_>
    <_>
      <rect>
        17 4 1 4</rect></_>
    <_>
      <rect>
        17 5 1 2</rect></_>
    <_>
      <rect>
        17 5 1 4</rect></_>
    <_>
      <rect>
        17 6 1 2</rect></_>
    <_>
      <rect>
        17 7 1 2</rect></_>
    <_>
      <rect>
        17 7 1 4</rect></_>
    <_>
      <rect>
        17 13 1 2</rect></_>
    <_>
      <rect>
        17 14 1 2</rect></_>
    <_>
      <rect>
        17 17 1 1</rect></_></features></cascade>
</opencv_storage>
