<?xml version="1.0"?>
<opencv_storage>
<stage12>
  <maxWeakCount>16</maxWeakCount>
  <stageThreshold>-2.4110465049743652e+00</stageThreshold>
  <weakClassifiers>
    <_>
      <internalNodes>
        0 -1 3687 -201327681 -1073741910 -209988142 -136458354
        -1149266159 1507417963 -1683243137 -207619462</internalNodes>
      <leafValues>
        -6.8287312984466553e-01 -5.7922769337892532e-02</leafValues></_>
    <_>
      <internalNodes>
        0 -1 3629 -1092699744 -2034324743 254778641 1600126955 848762675
        -2035846248 1060838841 1593569144</internalNodes>
      <leafValues>
        -6.8426215648651123e-01 1.3393124938011169e-01</leafValues></_>
    <_>
      <internalNodes>
        0 -1 3571 -1229063371 180845037 1459704642 1205785547 937399049
        211798799 400529288 1190636051</internalNodes>
      <leafValues>
        -5.5408644676208496e-01 2.1277198195457458e-01</leafValues></_>
    <_>
      <internalNodes>
        0 -1 2519 -146505548 -1090593 -538460163 -272537697 1968116209
        1540340671 -349371846 -1281410212</internalNodes>
      <leafValues>
        -4.4237267971038818e-01 2.9155343770980835e-01</leafValues></_>
    <_>
      <internalNodes>
        0 -1 391 -269484033 126534334 907182039 1861927578 467639295
        266027195 2138307569 -2133240588</internalNodes>
      <leafValues>
        -5.2666777372360229e-01 2.3319895565509796e-01</leafValues></_>
    <_>
      <internalNodes>
        0 -1 1758 -1615551520 1031711663 1073721343 -524289 -524293
        -1107951620 -20529 -1107868942</internalNodes>
      <leafValues>
        -2.9220134019851685e-01 4.3420243263244629e-01</leafValues></_>
    <_>
      <internalNodes>
        0 -1 582 -218103809 -282415446 1861956601 1130859043 -273279170
        1195323263 -268994602 -1022378241</internalNodes>
      <leafValues>
        -2.9825910925865173e-01 3.9779439568519592e-01</leafValues></_>
    <_>
      <internalNodes>
        0 -1 341 -1932636476 1677408411 -724107207 1920097586 -237845724
        1896685573 -237735939 2134206325</internalNodes>
      <leafValues>
        -6.2968844175338745e-01 1.8832793831825256e-01</leafValues></_>
    <_>
      <internalNodes>
        0 -1 3965 -1365757274 -1095324706 -2134603314 -1627748374
        713509880 -1432452791 736963515 -33997</internalNodes>
      <leafValues>
        -4.1949275135993958e-01 2.8147083520889282e-01</leafValues></_>
    <_>
      <internalNodes>
        0 -1 2183 2096033524 1398007034 1443225053 1866105546 -201854091
        2081933555 1026536469 840132333</internalNodes>
      <leafValues>
        -5.2026891708374023e-01 2.2137136757373810e-01</leafValues></_>
    <_>
      <internalNodes>
        0 -1 3780 -388372651 -210403521 -612716570 1390418756 -117535710
        -754266298 -51213142 -795156566</internalNodes>
      <leafValues>
        -3.3144941926002502e-01 3.4936380386352539e-01</leafValues></_>
    <_>
      <internalNodes>
        0 -1 2560 788852272 1602971732 1374343001 931300000 2102262780
        -2071229525 1305432543 1889078708</internalNodes>
      <leafValues>
        -5.5704021453857422e-01 2.1521691977977753e-01</leafValues></_>
    <_>
      <internalNodes>
        0 -1 45 -634408710 1778065743 1209685469 -660660649 239811182
        -1934694197 181352490 1159200486</internalNodes>
      <leafValues>
        -4.0952634811401367e-01 2.8756901621818542e-01</leafValues></_>
    <_>
      <internalNodes>
        0 -1 3932 -2091980681 -2096656241 85115182 -1289753022
        -2142830385 1124073473 -758431549 -260445369</internalNodes>
      <leafValues>
        -3.8764339685440063e-01 3.0730029940605164e-01</leafValues></_>
    <_>
      <internalNodes>
        0 -1 1694 1601290040 333404666 -804924243 807060686 1968565875
        2118682813 -237897736 1195213804</internalNodes>
      <leafValues>
        -4.6982297301292419e-01 2.4894694983959198e-01</leafValues></_>
    <_>
      <internalNodes>
        0 -1 665 2044028308 720822163 -787902521 -1357590826 -309353222
        1169155018 -473734864 2016311959</internalNodes>
      <leafValues>
        -5.6945329904556274e-01 1.9476066529750824e-01</leafValues></_></weakClassifiers></stage12>
</opencv_storage>
