<?xml version="1.0"?>
<opencv_storage>
<stage13>
  <maxWeakCount>13</maxWeakCount>
  <stageThreshold>-2.0592508316040039e+00</stageThreshold>
  <weakClassifiers>
    <_>
      <internalNodes>
        0 -1 430 -13108481 -424433185 -103295113 -470970497 -69731889
        1004249551 -111673881 -940574721</internalNodes>
      <leafValues>
        -6.6559910774230957e-01 2.7684563770890236e-02</leafValues></_>
    <_>
      <internalNodes>
        0 -1 2969 -70009579 849058241 -1119654503 -138228242 2143940322
        1609301674 665628726 -544736345</internalNodes>
      <leafValues>
        -4.4419705867767334e-01 2.6484215259552002e-01</leafValues></_>
    <_>
      <internalNodes>
        0 -1 789 -36310554 2147483647 -49739002 -402706985 -1987617361
        -1611672620 382538028 1171183568</internalNodes>
      <leafValues>
        -5.5970466136932373e-01 2.1811707317829132e-01</leafValues></_>
    <_>
      <internalNodes>
        0 -1 3203 -1111639080 -704659522 -67108897 -100794371
        -1073889285 -1936879618 503021567 -100667110</internalNodes>
      <leafValues>
        -3.0185785889625549e-01 4.2906808853149414e-01</leafValues></_>
    <_>
      <internalNodes>
        0 -1 751 -841011961 -52595713 -586286500 -34178742 -238089980
        -601928703 -92210474 2004319011</internalNodes>
      <leafValues>
        -4.7474148869514465e-01 2.9521584510803223e-01</leafValues></_>
    <_>
      <internalNodes>
        0 -1 205 -221261061 -386683218 922396859 -738989397 -1234843901
        -614465537 2119564687 -210242117</internalNodes>
      <leafValues>
        -2.7191638946533203e-01 4.6019715070724487e-01</leafValues></_>
    <_>
      <internalNodes>
        0 -1 3635 -1711623536 -1879397970 2107394525 -539243169
        869514235 -662262838 1002133945 -899682820</internalNodes>
      <leafValues>
        -4.4278693199157715e-01 2.7788189053535461e-01</leafValues></_>
    <_>
      <internalNodes>
        0 -1 3456 -269549645 -268435536 503231991 1626865375 359137170
        -301993007 -1625490150 -132645929</internalNodes>
      <leafValues>
        -2.8011912107467651e-01 4.7067523002624512e-01</leafValues></_>
    <_>
      <internalNodes>
        0 -1 1726 -1500568800 -2956533 1595349991 1775282070 -23202372
        -333730498 411793712 256916104</internalNodes>
      <leafValues>
        -6.2657564878463745e-01 1.9636301696300507e-01</leafValues></_>
    <_>
      <internalNodes>
        0 -1 327 -358815704 870317246 -1895139321 -684628111 -110935294
        290402611 -136455329 1966569834</internalNodes>
      <leafValues>
        -4.7522088885307312e-01 2.4780075252056122e-01</leafValues></_>
    <_>
      <internalNodes>
        0 -1 3686 -1499996161 -274731657 1360118992 1330543430 469412608
        -168219089 465013657 1117780486</internalNodes>
      <leafValues>
        -4.5830723643302917e-01 2.6655679941177368e-01</leafValues></_>
    <_>
      <internalNodes>
        0 -1 2326 2080370664 1037152015 1065352949 1735622521 -35782659
        -1397358628 -16806785 -1358996354</internalNodes>
      <leafValues>
        -3.1025499105453491e-01 3.7446784973144531e-01</leafValues></_>
    <_>
      <internalNodes>
        0 -1 534 1247161266 1258201598 -103160008 -1179677911 -75007246
        1368842960 -88114369 1946094463</internalNodes>
      <leafValues>
        -5.2045315504074097e-01 2.2942653298377991e-01</leafValues></_></weakClassifiers></stage13>
</opencv_storage>
