<?xml version="1.0"?>
<opencv_storage>
<stage4>
  <maxWeakCount>10</maxWeakCount>
  <stageThreshold>-2.0764682292938232e+00</stageThreshold>
  <weakClassifiers>
    <_>
      <internalNodes>
        0 -1 3600 -68158665 -469771825 1460130263 -1867525153
        -1409287525 32235594 -1816160257 -681575425</internalNodes>
      <leafValues>
        -7.3919177055358887e-01 1.0887227952480316e-01</leafValues></_>
    <_>
      <internalNodes>
        0 -1 353 -53343045 -33673189 1074737151 2098349946 -83805294
        -78904832 -1610044485 -12877957</internalNodes>
      <leafValues>
        -5.4611176252365112e-01 4.2964619398117065e-01</leafValues></_>
    <_>
      <internalNodes>
        0 -1 2822 -1092765444 -1333904994 -1948792322 -235940906
        -1449280513 -2135129928 322013689 423084346</internalNodes>
      <leafValues>
        -5.8531612157821655e-01 3.6885568499565125e-01</leafValues></_>
    <_>
      <internalNodes>
        0 -1 187 -310579656 -149438378 -1114757858 122028160 -11732076
        2120116802 2079326055 -715128865</internalNodes>
      <leafValues>
        -5.5082118511199951e-01 4.0462911128997803e-01</leafValues></_>
    <_>
      <internalNodes>
        0 -1 3687 -2097679445 577955354 1346621936 5015724 324769690
        324868162 438287674 4190778</internalNodes>
      <leafValues>
        -6.6180044412612915e-01 3.6377105116844177e-01</leafValues></_>
    <_>
      <internalNodes>
        0 -1 843 -74395654 -2448781 1359035663 793706650 -100613240
        -1084587790 2105736099 1893746487</internalNodes>
      <leafValues>
        -5.9739470481872559e-01 3.6633020639419556e-01</leafValues></_>
    <_>
      <internalNodes>
        0 -1 1712 -125537268 -41989411 -670016035 57803263 -70546516
        -1082720120 -770613860 -12903750</internalNodes>
      <leafValues>
        -5.4477816820144653e-01 4.1448941826820374e-01</leafValues></_>
    <_>
      <internalNodes>
        0 -1 351 -179171634 2004294235 -452817825 1932746506 -66513920
        1947271424 725736316 2138274806</internalNodes>
      <leafValues>
        -5.4082858562469482e-01 3.9567521214485168e-01</leafValues></_>
    <_>
      <internalNodes>
        0 -1 2000 -212473452 -1084237345 -586179113 1057264542
        -1332104967 1759199402 87887933 2143174238</internalNodes>
      <leafValues>
        -5.3477174043655396e-01 4.0347561240196228e-01</leafValues></_>
    <_>
      <internalNodes>
        0 -1 3925 -1428174337 -1593881453 -754925483 -2106931724
        -1165042977 -1476157437 -897395258 -1032591789</internalNodes>
      <leafValues>
        -4.7520449757575989e-01 4.5547875761985779e-01</leafValues></_></weakClassifiers></stage4>
</opencv_storage>
