<?xml version="1.0"?>
<opencv_storage>
<stage10>
  <maxWeakCount>8</maxWeakCount>
  <stageThreshold>-2.1286523342132568e+00</stageThreshold>
  <weakClassifiers>
    <_>
      <internalNodes>
        0 -1 271 -4469 -1440226429 -805052397 1676669731 -345518333
        -2113683453 -1018707661 -201327141</internalNodes>
      <leafValues>
        -7.2031098604202271e-01 1.5202951431274414e-01</leafValues></_>
    <_>
      <internalNodes>
        0 -1 786 -585697364 -33687553 -582512156 -570849812 -71781397
        -1091270230 824783652 491108480</internalNodes>
      <leafValues>
        -7.2294747829437256e-01 2.4410465359687805e-01</leafValues></_>
    <_>
      <internalNodes>
        0 -1 2562 -1279262944 -2048866305 1566021601 2145370016
        996146175 -1807694866 1072037365 301803438</internalNodes>
      <leafValues>
        -6.5623831748962402e-01 2.5407576560974121e-01</leafValues></_>
    <_>
      <internalNodes>
        0 -1 359 1447351172 -88543553 861731294 -38961966 -83763307
        -1280464245 2145238012 1979528171</internalNodes>
      <leafValues>
        -5.7172948122024536e-01 3.5168340802192688e-01</leafValues></_>
    <_>
      <internalNodes>
        0 -1 3749 -1279548462 -1510999059 -222058861 1884496851
        -1148209407 193687193 1538240816 1476391871</internalNodes>
      <leafValues>
        -5.5060601234436035e-01 3.1944161653518677e-01</leafValues></_>
    <_>
      <internalNodes>
        0 -1 709 -1361269772 -52465065 -581044257 1553656782 -150656129
        1345528034 -85873668 1744250810</internalNodes>
      <leafValues>
        -5.3843557834625244e-01 3.3251217007637024e-01</leafValues></_>
    <_>
      <internalNodes>
        0 -1 107 2087596906 -58720257 -45663488 -271635478 -909181053
        -100467998 2013213204 1977870258</internalNodes>
      <leafValues>
        -6.4277803897857666e-01 2.5927346944808960e-01</leafValues></_>
    <_>
      <internalNodes>
        0 -1 339 -204804182 2009044443 -1870106333 1999974716 -212999676
        589371503 -66195690 1433893758</internalNodes>
      <leafValues>
        -4.7392040491104126e-01 3.5916170477867126e-01</leafValues></_></weakClassifiers></stage10>
</opencv_storage>
