<?xml version="1.0"?>
<opencv_storage>
<stage7>
  <maxWeakCount>13</maxWeakCount>
  <stageThreshold>-2.0478954315185547e+00</stageThreshold>
  <weakClassifiers>
    <_>
      <internalNodes>
        0 -1 1125 2055165695 -82109097 -544057345 -2682689 1934752767
        -1140914913 2130968575 -1323030</internalNodes>
      <leafValues>
        -6.6304349899291992e-01 2.4887387454509735e-01</leafValues></_>
    <_>
      <internalNodes>
        0 -1 3773 -1926611587 -1646314146 -615622323 -67079681 994819069
        -1114587717 197134461 -1913258133</internalNodes>
      <leafValues>
        -4.8125630617141724e-01 3.2867023348808289e-01</leafValues></_>
    <_>
      <internalNodes>
        0 -1 3490 2136793008 156489717 -41822763 -1097750631 970418810
        -1956522113 413320081 1105708975</internalNodes>
      <leafValues>
        -5.9719938039779663e-01 2.4172849953174591e-01</leafValues></_>
    <_>
      <internalNodes>
        0 -1 146 -226622001 15607055 -282865704 1761004252 1220501118
        -1437654978 -224171198 1684503419</internalNodes>
      <leafValues>
        -5.4561054706573486e-01 2.4675458669662476e-01</leafValues></_>
    <_>
      <internalNodes>
        0 -1 3662 -1780491265 -275787269 289536466 151652758 -1036381436
        1780160527 -71795243 72248896</internalNodes>
      <leafValues>
        -6.4157146215438843e-01 2.2467422485351562e-01</leafValues></_>
    <_>
      <internalNodes>
        0 -1 1034 -81998512 1892798306 -845550369 -144553513 -13739180
        2070638721 -918226852 1601984331</internalNodes>
      <leafValues>
        -5.0207948684692383e-01 2.9040962457656860e-01</leafValues></_>
    <_>
      <internalNodes>
        0 -1 3944 -1343300787 -338768194 755029551 -895980532 1818181646
        156090441 1086406990 -214192545</internalNodes>
      <leafValues>
        -4.4414836168289185e-01 3.1023707985877991e-01</leafValues></_>
    <_>
      <internalNodes>
        0 -1 349 -1313074923 -694681123 17370204 47479120 755181760
        -1466969573 -1702094196 -302235675</internalNodes>
      <leafValues>
        -5.1031655073165894e-01 2.7780833840370178e-01</leafValues></_>
    <_>
      <internalNodes>
        0 -1 3689 -1882635267 1640162136 1090578815 -339217972
        1305361622 -1066759485 2123311350 -1035996958</internalNodes>
      <leafValues>
        -4.1816967725753784e-01 3.3811864256858826e-01</leafValues></_>
    <_>
      <internalNodes>
        0 -1 2073 -479548434 368028591 2147480575 1676932067 -301993987
        -1406277643 -41974309 -1460316291</internalNodes>
      <leafValues>
        -3.0933123826980591e-01 4.5928001403808594e-01</leafValues></_>
    <_>
      <internalNodes>
        0 -1 3968 537028583 780456774 -80605235 -1661713516 -388885509
        -36110181 -1078338706 -1594033803</internalNodes>
      <leafValues>
        -5.3923791646957397e-01 2.6072576642036438e-01</leafValues></_>
    <_>
      <internalNodes>
        0 -1 2316 1263596880 -342325165 -597823141 1832816895 997277629
        -2127255421 433327228 312953356</internalNodes>
      <leafValues>
        -6.0971361398696899e-01 2.3849199712276459e-01</leafValues></_>
    <_>
      <internalNodes>
        0 -1 3258 -807666180 1641152897 -1475752752 -305872698
        1362051074 -202651775 -1285081768 53982407</internalNodes>
      <leafValues>
        -5.4829126596450806e-01 2.3457145690917969e-01</leafValues></_></weakClassifiers></stage7>
</opencv_storage>
