<?xml version="1.0"?>
<opencv_storage>
<stage17>
  <maxWeakCount>20</maxWeakCount>
  <stageThreshold>-1.9769914150238037e+00</stageThreshold>
  <weakClassifiers>
    <_>
      <internalNodes>
        0 -1 3775 -1022165129 -135085761 -854171817 -44119043 -485794841
        -410353404 152039933 -1885864206</internalNodes>
      <leafValues>
        -6.5965807437896729e-01 -1.0134655982255936e-01</leafValues></_>
    <_>
      <internalNodes>
        0 -1 1427 -992736580 523715054 -800690529 2136634363 -930810892
        -178192279 2078272446 494894608</internalNodes>
      <leafValues>
        -5.4189789295196533e-01 1.0108356177806854e-01</leafValues></_>
    <_>
      <internalNodes>
        0 -1 3677 1575955431 1610595258 -32771 -8462850 -33587318
        -620822537 1879006327 -1025312518</internalNodes>
      <leafValues>
        -2.3170168697834015e-01 4.0495193004608154e-01</leafValues></_>
    <_>
      <internalNodes>
        0 -1 1087 -1629510540 -1294215585 1293343215 982757278
        2072975352 2116494066 -1047174659 1058486576</internalNodes>
      <leafValues>
        -4.5148304104804993e-01 1.9925312697887421e-01</leafValues></_>
    <_>
      <internalNodes>
        0 -1 3331 2146440756 -1411957282 -939337661 -2087197885
        936364021 262841175 1806198386 195093494</internalNodes>
      <leafValues>
        -5.6575185060501099e-01 1.8315252661705017e-01</leafValues></_>
    <_>
      <internalNodes>
        0 -1 298 -586888416 919261407 1032004622 754584654 -75695508
        1902829871 2074738540 1195339846</internalNodes>
      <leafValues>
        -5.5696302652359009e-01 1.6308060288429260e-01</leafValues></_>
    <_>
      <internalNodes>
        0 -1 87 -544547245 -369080193 253400529 49043662 -703104690
        1242094425 1118108128 1090412362</internalNodes>
      <leafValues>
        -5.1537525653839111e-01 1.5979903936386108e-01</leafValues></_>
    <_>
      <internalNodes>
        0 -1 3946 -1358967179 327723862 -1370504813 133863314
        -1428192016 -124633077 -1465339890 1480579964</internalNodes>
      <leafValues>
        -3.8621658086776733e-01 2.4201458692550659e-01</leafValues></_>
    <_>
      <internalNodes>
        0 -1 1447 1677189425 974168737 1158775249 -1361786605 2126990904
        2065406079 -295719148 593384562</internalNodes>
      <leafValues>
        -5.1244485378265381e-01 1.6342869400978088e-01</leafValues></_>
    <_>
      <internalNodes>
        0 -1 3225 -189350827 -268435620 -285971077 -4849801 -1374487622
        -903365306 -1263272034 -2046440169</internalNodes>
      <leafValues>
        -2.5027820467948914e-01 3.4893864393234253e-01</leafValues></_>
    <_>
      <internalNodes>
        0 -1 2785 -439391712 -1920826469 -1732150790 1029554763
        -645144901 1609468106 1988566329 817068715</internalNodes>
      <leafValues>
        -5.2712005376815796e-01 1.6589796543121338e-01</leafValues></_>
    <_>
      <internalNodes>
        0 -1 3841 -1561923763 -1258387725 -1726931473 1375469772
        196807435 -1441985878 1118523514 -788706084</internalNodes>
      <leafValues>
        -3.5619750618934631e-01 2.4645844101905823e-01</leafValues></_>
    <_>
      <internalNodes>
        0 -1 116 37750210 -2117130619 1159879526 1122388172 1340824682
        -1304018910 -1307479510 1688726648</internalNodes>
      <leafValues>
        -5.2406609058380127e-01 1.7047177255153656e-01</leafValues></_>
    <_>
      <internalNodes>
        0 -1 3536 -1378943203 836230543 830595052 776903240 1634404172
        929763503 973758472 6575936</internalNodes>
      <leafValues>
        -7.5731587409973145e-01 1.0475616902112961e-01</leafValues></_>
    <_>
      <internalNodes>
        0 -1 1851 -582100532 1225640920 -545218594 631606216 1124687737
        2144504539 939336980 1994237644</internalNodes>
      <leafValues>
        -5.6010526418685913e-01 1.3675834238529205e-01</leafValues></_>
    <_>
      <internalNodes>
        0 -1 1764 -726204932 -331024507 -1475092012 -1607432944
        -2008092498 679197204 -1393684141 -1997362187</internalNodes>
      <leafValues>
        -4.0655612945556641e-01 2.1991692483425140e-01</leafValues></_>
    <_>
      <internalNodes>
        0 -1 1421 1375708164 -554588579 420377984 208790030 2043222994
        -1081365752 1069764536 892670650</internalNodes>
      <leafValues>
        -5.8364331722259521e-01 1.5411561727523804e-01</leafValues></_>
    <_>
      <internalNodes>
        0 -1 2463 -657407868 -48367894 1929241119 -226690431 -226318176
        572322120 -701762358 1362854058</internalNodes>
      <leafValues>
        -2.8793835639953613e-01 3.1651169061660767e-01</leafValues></_>
    <_>
      <internalNodes>
        0 -1 3727 -1074159455 769342083 -167431470 1243216522 731979911
        -857685952 -1735519790 1516104015</internalNodes>
      <leafValues>
        -4.7751718759536743e-01 1.8806512653827667e-01</leafValues></_>
    <_>
      <internalNodes>
        0 -1 3374 -190930992 2076743838 -939308579 1531638593 529006579
        -1651851062 1797073213 1081308631</internalNodes>
      <leafValues>
        -3.6217731237411499e-01 2.4788552522659302e-01</leafValues></_></weakClassifiers></stage17>
</opencv_storage>
