<?xml version="1.0"?>
<opencv_storage>
<stage15>
  <maxWeakCount>12</maxWeakCount>
  <stageThreshold>-1.9710407257080078e+00</stageThreshold>
  <weakClassifiers>
    <_>
      <internalNodes>
        0 -1 35 -619512834 -344327177 491496202 -1903711477 -548667393
        -8271978 -859423745 -67378698</internalNodes>
      <leafValues>
        -7.5681048631668091e-01 -1.1850685626268387e-01</leafValues></_>
    <_>
      <internalNodes>
        0 -1 1133 825434278 1058640241 520197031 -587812 2056305031
        -1078351170 1569322410 201081818</internalNodes>
      <leafValues>
        -4.6518701314926147e-01 2.7171796560287476e-01</leafValues></_>
    <_>
      <internalNodes>
        0 -1 289 -1416977846 36077826 -1329135006 116107619 54752576
        24332309 20058690 1568657527</internalNodes>
      <leafValues>
        -6.6256570816040039e-01 1.8653264641761780e-01</leafValues></_>
    <_>
      <internalNodes>
        0 -1 235 -420748290 1945166808 -166648524 -9434034 -1345630236
        1675812818 -138069505 -10001610</internalNodes>
      <leafValues>
        -3.8350528478622437e-01 3.3979821205139160e-01</leafValues></_>
    <_>
      <internalNodes>
        0 -1 525 -134747412 1995910826 2147203829 2079533668 -21213828
        1727364988 -11113 -672156089</internalNodes>
      <leafValues>
        -3.1661406159400940e-01 4.0472072362899780e-01</leafValues></_>
    <_>
      <internalNodes>
        0 -1 3195 -1088358520 -2046077031 42719429 -817491794
        -1238632501 13824969 856421809 457060504</internalNodes>
      <leafValues>
        -6.0926628112792969e-01 2.1865151822566986e-01</leafValues></_>
    <_>
      <internalNodes>
        0 -1 1667 2096007444 1140321432 2108140956 -363631302 -741745763
        1938411992 -1081098472 -1214287009</internalNodes>
      <leafValues>
        -4.4983604550361633e-01 2.6214084029197693e-01</leafValues></_>
    <_>
      <internalNodes>
        0 -1 422 -473957653 861086210 -653548873 -317020730 52427771
        1375949059 1934750434 -1001917706</internalNodes>
      <leafValues>
        -3.5238930583000183e-01 3.3017253875732422e-01</leafValues></_>
    <_>
      <internalNodes>
        0 -1 3392 -1105450224 -578276457 1648549727 -643942466
        -1948411603 -2058951763 434993628 452983002</internalNodes>
      <leafValues>
        -4.2808651924133301e-01 2.7643138170242310e-01</leafValues></_>
    <_>
      <internalNodes>
        0 -1 3725 -949487872 -1041267387 -1820224766 1424937154
        2068836986 -2099197239 132980776 -717231109</internalNodes>
      <leafValues>
        -4.6110600233078003e-01 2.7585265040397644e-01</leafValues></_>
    <_>
      <internalNodes>
        0 -1 199 -470815230 -616829270 -596652591 -949322312 -1887439317
        40883702 234737995 -671875085</internalNodes>
      <leafValues>
        -2.8843015432357788e-01 3.9827644824981689e-01</leafValues></_>
    <_>
      <internalNodes>
        0 -1 1850 -622863116 -74064949 -49619170 1598334935 -1044376075
        2073803051 1073688588 617063698</internalNodes>
      <leafValues>
        -5.5548626184463501e-01 2.2446252405643463e-01</leafValues></_></weakClassifiers></stage15>
</opencv_storage>
