<?xml version="1.0"?>
<opencv_storage>
<stage16>
  <maxWeakCount>17</maxWeakCount>
  <stageThreshold>-1.8369847536087036e+00</stageThreshold>
  <weakClassifiers>
    <_>
      <internalNodes>
        0 -1 2822 -1092767746 -189505 -2016498689 -11568692 -1951810561
        -1145261060 257367535 -1150842434</internalNodes>
      <leafValues>
        -6.8084675073623657e-01 -9.7668558359146118e-02</leafValues></_>
    <_>
      <internalNodes>
        0 -1 349 831521181 -740422196 -1933260452 165511120 -1350346256
        -1344675613 -1630744376 -318957067</internalNodes>
      <leafValues>
        -4.9678745865821838e-01 1.4412829279899597e-01</leafValues></_>
    <_>
      <internalNodes>
        0 -1 673 -548049132 -231821617 -705299057 -17871729 -545997477
        859814335 -108194755 2078244727</internalNodes>
      <leafValues>
        -3.4217071533203125e-01 2.6628625392913818e-01</leafValues></_>
    <_>
      <internalNodes>
        0 -1 3538 -259575483 679935887 -33493673 -338170594 -1974792168
        -1232111733 384769442 1109588064</internalNodes>
      <leafValues>
        -5.1759511232376099e-01 1.8041434884071350e-01</leafValues></_>
    <_>
      <internalNodes>
        0 -1 3650 -1160002439 -1340416098 -1563381671 -1560389436
        -2069169157 -2118180723 -1159976435 -1795289867</internalNodes>
      <leafValues>
        -3.8697606325149536e-01 2.5473704934120178e-01</leafValues></_>
    <_>
      <internalNodes>
        0 -1 3434 -1728841759 1205786622 -318661156 -661661781
        1054824353 1027497355 -1884456071 -1993965181</internalNodes>
      <leafValues>
        -3.5292515158653259e-01 2.6304754614830017e-01</leafValues></_>
    <_>
      <internalNodes>
        0 -1 3893 1033637389 -1475695070 2080890767 -1127166254
        495425976 -1081214325 2028149729 -570559508</internalNodes>
      <leafValues>
        -4.4916656613349915e-01 2.2029574215412140e-01</leafValues></_>
    <_>
      <internalNodes>
        0 -1 145 1285318520 1682959997 1275940300 1088385262 2070641272
        1326129210 -381029766 1422383174</internalNodes>
      <leafValues>
        -4.8491129279136658e-01 1.8352065980434418e-01</leafValues></_>
    <_>
      <internalNodes>
        0 -1 7 -1350653194 715784924 810909779 -1959899446 -148900892
        -2094038600 1290505544 837632</internalNodes>
      <leafValues>
        -6.2614673376083374e-01 1.3590976595878601e-01</leafValues></_>
    <_>
      <internalNodes>
        0 -1 1436 -35657637 -227331213 2113682395 2147443382 -142693703
        -12617869 2147252217 -10521602</internalNodes>
      <leafValues>
        -2.4047991633415222e-01 4.2490905523300171e-01</leafValues></_>
    <_>
      <internalNodes>
        0 -1 3465 1054060339 -270744587 1590928855 -426247226 292776833
        265941969 292662669 410517246</internalNodes>
      <leafValues>
        -4.7156226634979248e-01 1.9929145276546478e-01</leafValues></_>
    <_>
      <internalNodes>
        0 -1 1130 2139041558 2104719638 2030423359 -1461733197
        1460370276 1934200852 2041314295 1786608900</internalNodes>
      <leafValues>
        -5.1718062162399292e-01 1.7574575543403625e-01</leafValues></_>
    <_>
      <internalNodes>
        0 -1 3935 -1429036131 -359729889 -15607521 -462980801 1669577296
        -284478776 730544912 -495783150</internalNodes>
      <leafValues>
        -4.3252605199813843e-01 2.1920195221900940e-01</leafValues></_>
    <_>
      <internalNodes>
        0 -1 671 1608358540 1222623918 -797303393 1888669420 -580435865
        2018197791 1590083823 -169099713</internalNodes>
      <leafValues>
        -3.3967015147209167e-01 2.8122317790985107e-01</leafValues></_>
    <_>
      <internalNodes>
        0 -1 2140 384823072 2102382644 -573852452 -144281434 -1144806788
        -136904470 -1999662739 298299191</internalNodes>
      <leafValues>
        -4.0910282731056213e-01 2.2973760962486267e-01</leafValues></_>
    <_>
      <internalNodes>
        0 -1 2828 184349620 619721054 -250309994 -214723626 999145452
        -1086008387 763041535 -1778832856</internalNodes>
      <leafValues>
        -4.2365396022796631e-01 2.1158942580223083e-01</leafValues></_>
    <_>
      <internalNodes>
        0 -1 1984 2056137516 -1146125941 1997403701 637882677 900870768
        14270602 -254267343 -23226088</internalNodes>
      <leafValues>
        -5.2415961027145386e-01 1.8107438087463379e-01</leafValues></_></weakClassifiers></stage16>
</opencv_storage>
