<?xml version="1.0"?>
<opencv_storage>
<stage11>
  <maxWeakCount>14</maxWeakCount>
  <stageThreshold>-2.0368425846099854e+00</stageThreshold>
  <weakClassifiers>
    <_>
      <internalNodes>
        0 -1 1445 2136964959 -8424937 866325471 -1153699201 -19171489
        -10767075 -336900129 -1409287873</internalNodes>
      <leafValues>
        -7.1285474300384521e-01 -4.9180328845977783e-02</leafValues></_>
    <_>
      <internalNodes>
        0 -1 1494 -278993216 -1241526305 -716842195 -1077400666
        -611656280 -109357608 -124553462 373980592</internalNodes>
      <leafValues>
        -6.5546441078186035e-01 1.1829099059104919e-01</leafValues></_>
    <_>
      <internalNodes>
        0 -1 2521 -152083708 -1077151747 -542254666 395184606 -122113576
        2025449405 -1214383336 367916991</internalNodes>
      <leafValues>
        -5.6116908788681030e-01 1.9447252154350281e-01</leafValues></_>
    <_>
      <internalNodes>
        0 -1 2829 2105536508 354985634 1027473407 1358163824 2146828276
        -1380057092 2147295227 -906021506</internalNodes>
      <leafValues>
        -2.8093421459197998e-01 4.1526412963867188e-01</leafValues></_>
    <_>
      <internalNodes>
        0 -1 3280 -408445683 -880088596 -532488737 -842493991 1883436848
        1241418175 864626587 2618229</internalNodes>
      <leafValues>
        -6.5432709455490112e-01 1.8335366249084473e-01</leafValues></_>
    <_>
      <internalNodes>
        0 -1 147 -1157935398 711093259 956776457 785621123 -1286875521
        584317535 -1115296625 -799544293</internalNodes>
      <leafValues>
        -3.8111028075218201e-01 3.1187099218368530e-01</leafValues></_>
    <_>
      <internalNodes>
        0 -1 809 1532371652 2049051270 -586713328 1244220928 -1421870104
        -1182187380 -11273349 1936400253</internalNodes>
      <leafValues>
        -5.5062872171401978e-01 2.0444753766059875e-01</leafValues></_>
    <_>
      <internalNodes>
        0 -1 2554 -202405019 1306859995 -739256461 -1085587198
        -241485827 423156377 -1287540231 511091832</internalNodes>
      <leafValues>
        -4.9864381551742554e-01 2.3698805272579193e-01</leafValues></_>
    <_>
      <internalNodes>
        0 -1 2278 221258704 -2021670159 -506819721 1191094444
        -1149400120 601596094 461969752 999107560</internalNodes>
      <leafValues>
        -5.4015541076660156e-01 1.9144774973392487e-01</leafValues></_>
    <_>
      <internalNodes>
        0 -1 372 171775861 806663495 -1774552772 -1120207724 -2133327371
        -893412415 -355694116 -109717244</internalNodes>
      <leafValues>
        -3.8074445724487305e-01 2.8870451450347900e-01</leafValues></_>
    <_>
      <internalNodes>
        0 -1 3909 -2103490657 -1218719313 -753700524 902205843
        -1655916098 -1320482291 -202000169 -1899838380</internalNodes>
      <leafValues>
        -4.8870638012886047e-01 2.2476659715175629e-01</leafValues></_>
    <_>
      <internalNodes>
        0 -1 1718 -855907372 179848142 -41824944 2131510534 2145353148
        -923861875 1962728912 1964259356</internalNodes>
      <leafValues>
        -6.2188827991485596e-01 1.7802567780017853e-01</leafValues></_>
    <_>
      <internalNodes>
        0 -1 729 2147159324 -471172325 5774239 1584029182 453575940
        -138647039 725723961 -183403172</internalNodes>
      <leafValues>
        -5.5010694265365601e-01 1.9888544082641602e-01</leafValues></_>
    <_>
      <internalNodes>
        0 -1 109 -1439233957 366692672 5870559 2076693505 -226549569
        456859827 -922527686 -990195469</internalNodes>
      <leafValues>
        -3.5258042812347412e-01 3.3014488220214844e-01</leafValues></_></weakClassifiers></stage11>
</opencv_storage>
