<?xml version="1.0"?>
<opencv_storage>
<stage8>
  <maxWeakCount>15</maxWeakCount>
  <stageThreshold>-2.1090323925018311e+00</stageThreshold>
  <weakClassifiers>
    <_>
      <internalNodes>
        0 -1 376 2012708319 2064744667 -644493377 1866254173 2141945727
        1936972794 -7352322 -27504801</internalNodes>
      <leafValues>
        -7.5238776206970215e-01 -1.5095156431198120e-01</leafValues></_>
    <_>
      <internalNodes>
        0 -1 187 -278086048 -145306090 -976339654 -2033275160 -305136687
        711920487 2144337911 -572534825</internalNodes>
      <leafValues>
        -5.7395386695861816e-01 1.5854422748088837e-01</leafValues></_>
    <_>
      <internalNodes>
        0 -1 3547 -268435489 1565901783 1263656410 47404884 -364654772
        -80738239 2072665480 67564193</internalNodes>
      <leafValues>
        -5.3588783740997314e-01 2.1724243462085724e-01</leafValues></_>
    <_>
      <internalNodes>
        0 -1 727 -1109522993 1601119199 -2003504451 -36545075 1974815152
        2110087280 -1091502340 1600420839</internalNodes>
      <leafValues>
        -4.0441116690635681e-01 3.0580908060073853e-01</leafValues></_>
    <_>
      <internalNodes>
        0 -1 2063 870705151 -101056517 2147332085 695222263 -1077952593
        -1107902468 -33566945 -1141438157</internalNodes>
      <leafValues>
        -2.1460890769958496e-01 5.6361228227615356e-01</leafValues></_>
    <_>
      <internalNodes>
        0 -1 3467 -1209139332 254705275 1489018215 2136955243 784879888
        -1384435363 444743156 1097332591</internalNodes>
      <leafValues>
        -5.5923390388488770e-01 2.3309227824211121e-01</leafValues></_>
    <_>
      <internalNodes>
        0 -1 120 -6098189 173999735 1230634943 1640893966 -1296897906
        -404239961 2019752919 -732270722</internalNodes>
      <leafValues>
        -3.9099448919296265e-01 3.0653539299964905e-01</leafValues></_>
    <_>
      <internalNodes>
        0 -1 1099 1985969348 -20063203 1750823361 -50442006 1265545040
        -1158209515 1971402744 2000103418</internalNodes>
      <leafValues>
        -5.5371540784835815e-01 2.1700271964073181e-01</leafValues></_>
    <_>
      <internalNodes>
        0 -1 3930 34199283 -1790209589 -653012235 -360048162 -67151913
        -1689550137 -342928012 -368841977</internalNodes>
      <leafValues>
        -4.2044425010681152e-01 2.8087174892425537e-01</leafValues></_>
    <_>
      <internalNodes>
        0 -1 2256 805252368 1977542626 -783268104 1155420523 1238062544
        1773725993 2113632189 717208419</internalNodes>
      <leafValues>
        -5.4183238744735718e-01 2.3568241298198700e-01</leafValues></_>
    <_>
      <internalNodes>
        0 -1 3905 201399383 -1407944107 -649343045 -556132352
        -1075298545 -293550071 -3933218 -1359987916</internalNodes>
      <leafValues>
        -5.0146508216857910e-01 2.2988745570182800e-01</leafValues></_>
    <_>
      <internalNodes>
        0 -1 247 -352596129 1787713821 -762757116 1258335555 -354743526
        1294682880 -522038784 -148120561</internalNodes>
      <leafValues>
        -3.7424042820930481e-01 3.2501810789108276e-01</leafValues></_>
    <_>
      <internalNodes>
        0 -1 9 2031779631 840895291 -1943972653 177874623 1260634687
        1185106464 1118804924 138861652</internalNodes>
      <leafValues>
        -5.4335218667984009e-01 2.2753924131393433e-01</leafValues></_>
    <_>
      <internalNodes>
        0 -1 3689 492114407 -1387033086 1233240959 -278662322 1306403282
        -654777774 1070304503 -771231118</internalNodes>
      <leafValues>
        -4.0362444519996643e-01 3.2175913453102112e-01</leafValues></_>
    <_>
      <internalNodes>
        0 -1 3390 -2084697140 -1731294910 -921940355 -82844715 592378879
        -2099259317 1036137981 970093360</internalNodes>
      <leafValues>
        -5.6506091356277466e-01 2.2251524031162262e-01</leafValues></_></weakClassifiers></stage8>
</opencv_storage>
