<?xml version="1.0"?>
<opencv_storage>
<stage1>
  <maxWeakCount>7</maxWeakCount>
  <stageThreshold>-1.6149986982345581e+00</stageThreshold>
  <weakClassifiers>
    <_>
      <internalNodes>
        0 -1 752 2132180831 -11009 1595301343 -172577 2033481087
        -7495681 -1147634689 -1082185601</internalNodes>
      <leafValues>
        -7.4881786108016968e-01 3.7840065360069275e-01</leafValues></_>
    <_>
      <internalNodes>
        0 -1 3227 -134217731 -2359297 -182068801 -2425354 -739515051
        1134543309 -1597385468 1099090</internalNodes>
      <leafValues>
        -8.1272661685943604e-01 3.2061237096786499e-01</leafValues></_>
    <_>
      <internalNodes>
        0 -1 3134 -2099279 -877801007 -612108289 -539492397 1605334451
        28117147 1451491107 1574952959</internalNodes>
      <leafValues>
        -6.0111814737319946e-01 4.8911806941032410e-01</leafValues></_>
    <_>
      <internalNodes>
        0 -1 2302 -102822587 360011773 -712790095 2010776060 2107471356
        294960637 495238392 964231388</internalNodes>
      <leafValues>
        -6.6393774747848511e-01 3.9039501547813416e-01</leafValues></_>
    <_>
      <internalNodes>
        0 -1 504 -205852674 877823230 -552245494 -1081013982 -142181504
        -384642148 -73663681 868707967</internalNodes>
      <leafValues>
        -6.1401921510696411e-01 4.4555810093879700e-01</leafValues></_>
    <_>
      <internalNodes>
        0 -1 1715 -581634860 -2102339 1443888591 1125673590 -83316264
        631188254 1509451929 1067127306</internalNodes>
      <leafValues>
        -6.0812842845916748e-01 4.1677808761596680e-01</leafValues></_>
    <_>
      <internalNodes>
        0 -1 314 -294228368 -67223393 -1160110081 2133882096 2066622279
        1934163979 1003178015 1030967413</internalNodes>
      <leafValues>
        -6.9566470384597778e-01 3.5451009869575500e-01</leafValues></_></weakClassifiers></stage1>
</opencv_storage>
