<?xml version="1.0"?>
<opencv_storage>
<stage6>
  <maxWeakCount>12</maxWeakCount>
  <stageThreshold>-2.3886551856994629e+00</stageThreshold>
  <weakClassifiers>
    <_>
      <internalNodes>
        0 -1 1131 2011101117 989311189 1564258303 -9000609 2075820030
        -4519186 -1349668866 -1076146593</internalNodes>
      <leafValues>
        -7.1575611829757690e-01 8.0110497772693634e-02</leafValues></_>
    <_>
      <internalNodes>
        0 -1 842 -470880258 -484529897 -146645697 1305347496 -997857030
        -4413204 -336434241 -419475721</internalNodes>
      <leafValues>
        -5.5469506978988647e-01 3.1763616204261780e-01</leafValues></_>
    <_>
      <internalNodes>
        0 -1 3708 234874679 -1547518562 -779358148 -823678932 1170192274
        41553007 384509518 1346107579</internalNodes>
      <leafValues>
        -6.2072592973709106e-01 2.7916464209556580e-01</leafValues></_>
    <_>
      <internalNodes>
        0 -1 2995 1542683696 268153855 -178289422 -3480353 -570427973
        1442630576 562316464 356379804</internalNodes>
      <leafValues>
        -7.3140764236450195e-01 2.1487063169479370e-01</leafValues></_>
    <_>
      <internalNodes>
        0 -1 1367 2061273168 872006323 706452989 872284654 -1082263820
        922999303 1008237469 1966945276</internalNodes>
      <leafValues>
        -6.6964173316955566e-01 2.6202538609504700e-01</leafValues></_>
    <_>
      <internalNodes>
        0 -1 3434 -218103819 1474294750 -75246629 -83892233 889131432
        1696547275 717202121 4714947</internalNodes>
      <leafValues>
        -5.3073608875274658e-01 3.3710131049156189e-01</leafValues></_>
    <_>
      <internalNodes>
        0 -1 203 -292573457 -337237089 1246725842 -480304402 -605848709
        1127424519 1592522562 -134743993</internalNodes>
      <leafValues>
        -4.7788542509078979e-01 3.8063552975654602e-01</leafValues></_>
    <_>
      <internalNodes>
        0 -1 3122 -8900 -1345852381 -973042513 -69745789 1956607787
        1167574598 2092258082 -1043892389</internalNodes>
      <leafValues>
        -4.7132962942123413e-01 3.5240247845649719e-01</leafValues></_>
    <_>
      <internalNodes>
        0 -1 1440 -868455683 2142458230 -1560111268 1605771517
        2041864061 -47882215 997799930 -279420111</internalNodes>
      <leafValues>
        -4.7582805156707764e-01 3.5424888134002686e-01</leafValues></_>
    <_>
      <internalNodes>
        0 -1 2377 -304876548 -539768104 1862376941 -7492917 397132345
        2022888078 84489265 1690611502</internalNodes>
      <leafValues>
        -6.0212945938110352e-01 2.8455981612205505e-01</leafValues></_>
    <_>
      <internalNodes>
        0 -1 252 -356790849 -202233281 -1291865824 1932636094 -411738305
        1416855423 -50856912 -210239618</internalNodes>
      <leafValues>
        -3.8273766636848450e-01 4.9402561783790588e-01</leafValues></_>
    <_>
      <internalNodes>
        0 -1 3761 569044660 615422879 1631656268 552983453 1072427235
        15229259 1143188205 1420542718</internalNodes>
      <leafValues>
        -6.5973764657974243e-01 2.6744964718818665e-01</leafValues></_></weakClassifiers></stage6>
</opencv_storage>
