<?xml version="1.0"?>
<opencv_storage>
<stage19>
  <maxWeakCount>17</maxWeakCount>
  <stageThreshold>-2.0437114238739014e+00</stageThreshold>
  <weakClassifiers>
    <_>
      <internalNodes>
        0 -1 3662 -1226835457 -44573217 -1923757601 -7504746 -161489956
        -300164609 -3937067 -465404220</internalNodes>
      <leafValues>
        -7.5225871801376343e-01 -2.3401081562042236e-01</leafValues></_>
    <_>
      <internalNodes>
        0 -1 2902 -1949323268 -208940340 -851015311 1862618304 972195099
        1000332900 707988473 658981641</internalNodes>
      <leafValues>
        -5.4428476095199585e-01 1.1152347177267075e-01</leafValues></_>
    <_>
      <internalNodes>
        0 -1 80 439565106 798961463 1821341961 1859937390 -499948725
        -604243017 -1343489518 1279778534</internalNodes>
      <leafValues>
        -4.5418542623519897e-01 2.0330071449279785e-01</leafValues></_>
    <_>
      <internalNodes>
        0 -1 201 -1151988723 931836682 2128502096 -486702656 996136414
        -1154547583 -1972380018 1153384800</internalNodes>
      <leafValues>
        -3.9039918780326843e-01 2.3920230567455292e-01</leafValues></_>
    <_>
      <internalNodes>
        0 -1 2552 1696270129 -606080956 -942681741 1473382990 -184336453
        -995456054 996629305 1928838009</internalNodes>
      <leafValues>
        -3.5109043121337891e-01 2.5051027536392212e-01</leafValues></_>
    <_>
      <internalNodes>
        0 -1 3543 -76355587 985128702 -4 -20976002 2143247485 -4563460
        -1073930657 -653095338</internalNodes>
      <leafValues>
        -2.5974822044372559e-01 3.6119103431701660e-01</leafValues></_>
    <_>
      <internalNodes>
        0 -1 3560 -1099466764 114425823 2130823155 -1370565871 971188792
        665552104 667626176 4369472</internalNodes>
      <leafValues>
        -6.9586384296417236e-01 1.2460439652204514e-01</leafValues></_>
    <_>
      <internalNodes>
        0 -1 3676 1656647471 -687870018 -536871555 -1073758748
        -378554446 -1426214913 1530879711 -517356822</internalNodes>
      <leafValues>
        -2.4540537595748901e-01 3.5791373252868652e-01</leafValues></_>
    <_>
      <internalNodes>
        0 -1 827 1961711083 -545003118 156462048 1608371645 2007156719
        2134999056 561737595 -1514543696</internalNodes>
      <leafValues>
        -2.8773599863052368e-01 2.9695445299148560e-01</leafValues></_>
    <_>
      <internalNodes>
        0 -1 1898 -1373179376 -581383858 487193476 -1556053119 721403380
        2088928405 777794869 1336174588</internalNodes>
      <leafValues>
        -5.7321912050247192e-01 1.6066524386405945e-01</leafValues></_>
    <_>
      <internalNodes>
        0 -1 1399 241148769 -244957093 1159271423 1391658906 -1332244333
        441389323 1141750895 2146852860</internalNodes>
      <leafValues>
        -3.1004351377487183e-01 2.8895378112792969e-01</leafValues></_>
    <_>
      <internalNodes>
        0 -1 916 -489530378 -706625080 -117047897 2106337167 1087565926
        1308725384 1348592631 388956131</internalNodes>
      <leafValues>
        -3.0743184685707092e-01 2.8100746870040894e-01</leafValues></_>
    <_>
      <internalNodes>
        0 -1 75 -278499009 -46172750 -41963777 -885076107 -8915205
        -1073791753 -1182798721 -926361152</internalNodes>
      <leafValues>
        -2.7382078766822815e-01 3.2181376218795776e-01</leafValues></_>
    <_>
      <internalNodes>
        0 -1 3773 172623221 -1671487666 -2112992435 1959018974
        1800256511 1065400450 429725949 29457259</internalNodes>
      <leafValues>
        -4.4526743888854980e-01 1.9693025946617126e-01</leafValues></_>
    <_>
      <internalNodes>
        0 -1 295 2128521448 -291340087 1426862383 390987804 548017356
        1451430531 958596509 56236919</internalNodes>
      <leafValues>
        -5.0713092088699341e-01 1.7220993340015411e-01</leafValues></_>
    <_>
      <internalNodes>
        0 -1 3937 -1568012621 1116720899 -821469749 597044865 839863455
        1368309962 1178781331 -500840448</internalNodes>
      <leafValues>
        -4.6209636330604553e-01 1.8843565881252289e-01</leafValues></_>
    <_>
      <internalNodes>
        0 -1 3782 250761044 -1110215937 -1870075254 1004503646
        -913625291 -540054574 -1706374956 267280</internalNodes>
      <leafValues>
        -6.7588436603546143e-01 1.2301301956176758e-01</leafValues></_></weakClassifiers></stage19>
</opencv_storage>
