<?xml version="1.0"?>
<opencv_storage>
<stage0>
  <maxWeakCount>14</maxWeakCount>
  <stageThreshold>-2.4345831871032715e+00</stageThreshold>
  <weakClassifiers>
    <_>
      <internalNodes>
        0 -1 59175 -3.5937257111072540e-02</internalNodes>
      <leafValues>
        2.6252377033233643e-01 -7.9504364728927612e-01</leafValues></_>
    <_>
      <internalNodes>
        0 -1 62671 -4.5764960348606110e-02</internalNodes>
      <leafValues>
        5.4369467496871948e-01 -5.1224005222320557e-01</leafValues></_>
    <_>
      <internalNodes>
        0 -1 21738 7.3073641397058964e-04</internalNodes>
      <leafValues>
        2.7593433856964111e-01 -6.1415219306945801e-01</leafValues></_>
    <_>
      <internalNodes>
        0 -1 44886 -1.0588563978672028e-02</internalNodes>
      <leafValues>
        8.6613392829895020e-01 -2.0148700475692749e-01</leafValues></_>
    <_>
      <internalNodes>
        0 -1 54752 5.9630135074257851e-03</internalNodes>
      <leafValues>
        2.7364844083786011e-01 -5.9894627332687378e-01</leafValues></_>
    <_>
      <internalNodes>
        0 -1 143 8.5015650838613510e-03</internalNodes>
      <leafValues>
        2.0532435178756714e-01 -7.3661309480667114e-01</leafValues></_>
    <_>
      <internalNodes>
        0 -1 62900 -7.1549922227859497e-02</internalNodes>
      <leafValues>
        6.4172565937042236e-01 -2.4052332341670990e-01</leafValues></_>
    <_>
      <internalNodes>
        0 -1 13301 1.0775070637464523e-01</internalNodes>
      <leafValues>
        -2.1021226048469543e-01 6.5244132280349731e-01</leafValues></_>
    <_>
      <internalNodes>
        0 -1 59004 2.3770637810230255e-02</internalNodes>
      <leafValues>
        1.7665372788906097e-01 -7.3607951402664185e-01</leafValues></_>
    <_>
      <internalNodes>
        0 -1 67643 8.8225174695253372e-03</internalNodes>
      <leafValues>
        -2.2664903104305267e-01 6.1868357658386230e-01</leafValues></_>
    <_>
      <internalNodes>
        0 -1 33603 1.8334206193685532e-02</internalNodes>
      <leafValues>
        -2.2837746143341064e-01 5.7995879650115967e-01</leafValues></_>
    <_>
      <internalNodes>
        0 -1 2758 -2.0609408617019653e-02</internalNodes>
      <leafValues>
        -8.5473978519439697e-01 1.5152522921562195e-01</leafValues></_>
    <_>
      <internalNodes>
        0 -1 32880 3.3399038016796112e-02</internalNodes>
      <leafValues>
        -2.2770103812217712e-01 4.9893534183502197e-01</leafValues></_>
    <_>
      <internalNodes>
        0 -1 40018 6.2992699444293976e-02</internalNodes>
      <leafValues>
        1.4825217425823212e-01 -8.6100834608078003e-01</leafValues></_></weakClassifiers></stage0>
</opencv_storage>
