<?xml version="1.0"?>
<opencv_storage>
<stage18>
  <maxWeakCount>66</maxWeakCount>
  <stageThreshold>-1.8062034845352173e+00</stageThreshold>
  <weakClassifiers>
    <_>
      <internalNodes>
        0 -1 42492 5.0340628623962402e-01</internalNodes>
      <leafValues>
        -5.7047510147094727e-01 4.3478259444236755e-01</leafValues></_>
    <_>
      <internalNodes>
        0 -1 77660 8.4392155986279249e-04</internalNodes>
      <leafValues>
        1.8671160563826561e-02 -5.1320475339889526e-01</leafValues></_>
    <_>
      <internalNodes>
        0 -1 7612 -6.6141514107584953e-03</internalNodes>
      <leafValues>
        -2.7547457814216614e-01 1.2545377016067505e-01</leafValues></_>
    <_>
      <internalNodes>
        0 -1 72892 1.0558314621448517e-02</internalNodes>
      <leafValues>
        1.0880347341299057e-01 -3.8227251172065735e-01</leafValues></_>
    <_>
      <internalNodes>
        0 -1 77653 -1.0580418165773153e-03</internalNodes>
      <leafValues>
        -4.9561703205108643e-01 7.9224936664104462e-02</leafValues></_>
    <_>
      <internalNodes>
        0 -1 24501 2.2063655778765678e-03</internalNodes>
      <leafValues>
        3.0979078263044357e-02 -8.1017881631851196e-01</leafValues></_>
    <_>
      <internalNodes>
        0 -1 7988 2.4251805245876312e-01</internalNodes>
      <leafValues>
        2.3302972316741943e-02 -6.9676476716995239e-01</leafValues></_>
    <_>
      <internalNodes>
        0 -1 74374 8.4378942847251892e-03</internalNodes>
      <leafValues>
        3.7268783897161484e-02 -7.2946178913116455e-01</leafValues></_>
    <_>
      <internalNodes>
        0 -1 75991 -6.6819111816585064e-03</internalNodes>
      <leafValues>
        2.8678312897682190e-01 -9.8155200481414795e-02</leafValues></_>
    <_>
      <internalNodes>
        0 -1 21695 -4.7698683920316398e-04</internalNodes>
      <leafValues>
        1.1919171363115311e-01 -2.6194238662719727e-01</leafValues></_>
    <_>
      <internalNodes>
        0 -1 41463 1.1563551612198353e-02</internalNodes>
      <leafValues>
        -2.3232775926589966e-01 1.0898544639348984e-01</leafValues></_>
    <_>
      <internalNodes>
        0 -1 68682 7.1455352008342743e-03</internalNodes>
      <leafValues>
        3.5375427454710007e-02 -7.9820090532302856e-01</leafValues></_>
    <_>
      <internalNodes>
        0 -1 44838 2.3733573034405708e-03</internalNodes>
      <leafValues>
        8.6039379239082336e-02 -2.8083473443984985e-01</leafValues></_>
    <_>
      <internalNodes>
        0 -1 53976 1.7948513850569725e-02</internalNodes>
      <leafValues>
        -1.1471497267484665e-01 2.2528931498527527e-01</leafValues></_>
    <_>
      <internalNodes>
        0 -1 45868 -6.5064779482781887e-03</internalNodes>
      <leafValues>
        1.5898770093917847e-01 -1.6964520514011383e-01</leafValues></_>
    <_>
      <internalNodes>
        0 -1 62603 -2.3239323869347572e-02</internalNodes>
      <leafValues>
        -5.8125859498977661e-01 4.4197808951139450e-02</leafValues></_>
    <_>
      <internalNodes>
        0 -1 16211 5.8940765447914600e-03</internalNodes>
      <leafValues>
        -1.9144618511199951e-01 1.4377528429031372e-01</leafValues></_>
    <_>
      <internalNodes>
        0 -1 54511 5.6331055238842964e-03</internalNodes>
      <leafValues>
        -1.1808352917432785e-01 2.3235695064067841e-01</leafValues></_>
    <_>
      <internalNodes>
        0 -1 75318 -1.4601622242480516e-03</internalNodes>
      <leafValues>
        -6.9455391168594360e-01 3.8164641708135605e-02</leafValues></_>
    <_>
      <internalNodes>
        0 -1 41106 -4.0175542235374451e-02</internalNodes>
      <leafValues>
        2.6827767491340637e-01 -9.0817324817180634e-02</leafValues></_>
    <_>
      <internalNodes>
        0 -1 63360 -3.0237089842557907e-02</internalNodes>
      <leafValues>
        -5.8308380842208862e-01 3.9684213697910309e-02</leafValues></_>
    <_>
      <internalNodes>
        0 -1 56701 8.0907382071018219e-03</internalNodes>
      <leafValues>
        6.0821045190095901e-02 -3.3208981156349182e-01</leafValues></_>
    <_>
      <internalNodes>
        0 -1 49997 1.8569469451904297e-02</internalNodes>
      <leafValues>
        2.7538629248738289e-02 -7.2253698110580444e-01</leafValues></_>
    <_>
      <internalNodes>
        0 -1 63987 1.0082145035266876e-01</internalNodes>
      <leafValues>
        1.7712708562612534e-02 -8.6120259761810303e-01</leafValues></_>
    <_>
      <internalNodes>
        0 -1 32928 5.1314868032932281e-02</internalNodes>
      <leafValues>
        -1.0715555399656296e-01 2.0251068472862244e-01</leafValues></_>
    <_>
      <internalNodes>
        0 -1 75263 3.1640939414501190e-02</internalNodes>
      <leafValues>
        -6.6700831055641174e-02 3.4798607230186462e-01</leafValues></_>
    <_>
      <internalNodes>
        0 -1 77167 2.1651685237884521e-03</internalNodes>
      <leafValues>
        4.3522261083126068e-02 -6.8869781494140625e-01</leafValues></_>
    <_>
      <internalNodes>
        0 -1 68753 -2.6085842400789261e-02</internalNodes>
      <leafValues>
        -7.7722394466400146e-01 2.0945273339748383e-02</leafValues></_>
    <_>
      <internalNodes>
        0 -1 44659 -2.7805953868664801e-04</internalNodes>
      <leafValues>
        1.6824221611022949e-01 -1.2761038541793823e-01</leafValues></_>
    <_>
      <internalNodes>
        0 -1 78025 7.5545636937022209e-03</internalNodes>
      <leafValues>
        1.3102194666862488e-01 -1.5663163363933563e-01</leafValues></_>
    <_>
      <internalNodes>
        0 -1 78257 2.5686223059892654e-02</internalNodes>
      <leafValues>
        2.5260873138904572e-02 -8.1862533092498779e-01</leafValues></_>
    <_>
      <internalNodes>
        0 -1 78293 1.7535968800075352e-04</internalNodes>
      <leafValues>
        7.9676501452922821e-02 -2.4819082021713257e-01</leafValues></_>
    <_>
      <internalNodes>
        0 -1 77641 5.2683688409160823e-05</internalNodes>
      <leafValues>
        -1.4601145684719086e-01 1.4742730557918549e-01</leafValues></_>
    <_>
      <internalNodes>
        0 -1 70561 -1.3160209171473980e-02</internalNodes>
      <leafValues>
        -5.4151934385299683e-01 3.9051007479429245e-02</leafValues></_>
    <_>
      <internalNodes>
        0 -1 73241 1.5879562124609947e-03</internalNodes>
      <leafValues>
        -1.2931957840919495e-01 1.7337413132190704e-01</leafValues></_>
    <_>
      <internalNodes>
        0 -1 75228 -5.4468442685902119e-03</internalNodes>
      <leafValues>
        2.3318783938884735e-01 -8.9568331837654114e-02</leafValues></_>
    <_>
      <internalNodes>
        0 -1 74926 -3.0468543991446495e-03</internalNodes>
      <leafValues>
        2.1350951492786407e-01 -9.7942061722278595e-02</leafValues></_>
    <_>
      <internalNodes>
        0 -1 67452 4.7488548443652689e-04</internalNodes>
      <leafValues>
        -9.9381670355796814e-02 2.1215532720088959e-01</leafValues></_>
    <_>
      <internalNodes>
        0 -1 71174 1.4744235668331385e-03</internalNodes>
      <leafValues>
        4.4287562370300293e-02 -4.5153018832206726e-01</leafValues></_>
    <_>
      <internalNodes>
        0 -1 70915 2.7614822611212730e-03</internalNodes>
      <leafValues>
        -1.2940880656242371e-01 1.7205478250980377e-01</leafValues></_>
    <_>
      <internalNodes>
        0 -1 58438 4.1683856397867203e-03</internalNodes>
      <leafValues>
        -5.2444532513618469e-02 4.3482634425163269e-01</leafValues></_>
    <_>
      <internalNodes>
        0 -1 34019 7.7264696359634399e-02</internalNodes>
      <leafValues>
        3.8919616490602493e-02 -6.0856884717941284e-01</leafValues></_>
    <_>
      <internalNodes>
        0 -1 67451 9.9990260787308216e-04</internalNodes>
      <leafValues>
        -7.6292768120765686e-02 2.8007397055625916e-01</leafValues></_>
    <_>
      <internalNodes>
        0 -1 66568 1.7364105442538857e-03</internalNodes>
      <leafValues>
        3.2046899199485779e-02 -6.6739523410797119e-01</leafValues></_>
    <_>
      <internalNodes>
        0 -1 58355 -5.3383060730993748e-05</internalNodes>
      <leafValues>
        1.2455110996961594e-01 -1.6059529781341553e-01</leafValues></_>
    <_>
      <internalNodes>
        0 -1 32317 7.1531742811203003e-02</internalNodes>
      <leafValues>
        -5.7734459638595581e-02 3.4851348400115967e-01</leafValues></_>
    <_>
      <internalNodes>
        0 -1 47924 -4.3350353371351957e-04</internalNodes>
      <leafValues>
        2.4530814588069916e-01 -8.0960489809513092e-02</leafValues></_>
    <_>
      <internalNodes>
        0 -1 32111 1.5414467453956604e-01</internalNodes>
      <leafValues>
        3.4341391175985336e-02 -6.0556524991989136e-01</leafValues></_>
    <_>
      <internalNodes>
        0 -1 72362 2.5398895144462585e-02</internalNodes>
      <leafValues>
        6.4939171075820923e-02 -2.8787302970886230e-01</leafValues></_>
    <_>
      <internalNodes>
        0 -1 49656 -4.3581277132034302e-02</internalNodes>
      <leafValues>
        2.2024567425251007e-01 -9.7343996167182922e-02</leafValues></_>
    <_>
      <internalNodes>
        0 -1 44635 1.5044933184981346e-02</internalNodes>
      <leafValues>
        -1.2116103619337082e-01 1.6980934143066406e-01</leafValues></_>
    <_>
      <internalNodes>
        0 -1 7622 -2.4131471291184425e-03</internalNodes>
      <leafValues>
        -5.7046955823898315e-01 3.2630387693643570e-02</leafValues></_>
    <_>
      <internalNodes>
        0 -1 77240 -4.0599079802632332e-03</internalNodes>
      <leafValues>
        -5.2407944202423096e-01 3.2049741595983505e-02</leafValues></_>
    <_>
      <internalNodes>
        0 -1 24515 -1.0792448185384274e-02</internalNodes>
      <leafValues>
        -2.8485059738159180e-01 6.5201006829738617e-02</leafValues></_>
    <_>
      <internalNodes>
        0 -1 70797 -2.8959428891539574e-03</internalNodes>
      <leafValues>
        -5.3730499744415283e-01 3.2232686877250671e-02</leafValues></_>
    <_>
      <internalNodes>
        0 -1 78449 8.8254222646355629e-04</internalNodes>
      <leafValues>
        -1.2953279912471771e-01 1.4447513222694397e-01</leafValues></_>
    <_>
      <internalNodes>
        0 -1 4855 8.3301123231649399e-04</internalNodes>
      <leafValues>
        -7.0142418146133423e-02 2.6484677195549011e-01</leafValues></_>
    <_>
      <internalNodes>
        0 -1 4432 7.3626190423965454e-03</internalNodes>
      <leafValues>
        4.7232270240783691e-02 -5.3757929801940918e-01</leafValues></_>
    <_>
      <internalNodes>
        0 -1 21751 2.8426176868379116e-04</internalNodes>
      <leafValues>
        -1.2014846503734589e-01 1.6594757139682770e-01</leafValues></_>
    <_>
      <internalNodes>
        0 -1 45758 -6.1567444354295731e-02</internalNodes>
      <leafValues>
        6.3923299312591553e-01 -3.1588919460773468e-02</leafValues></_>
    <_>
      <internalNodes>
        0 -1 58666 5.7823858223855495e-03</internalNodes>
      <leafValues>
        3.6587458103895187e-02 -6.1415767669677734e-01</leafValues></_>
    <_>
      <internalNodes>
        0 -1 75581 4.9430069338995963e-05</internalNodes>
      <leafValues>
        -1.5103843808174133e-01 1.3619416952133179e-01</leafValues></_>
    <_>
      <internalNodes>
        0 -1 21888 3.7043988704681396e-02</internalNodes>
      <leafValues>
        2.5367528200149536e-02 -7.3223257064819336e-01</leafValues></_>
    <_>
      <internalNodes>
        0 -1 14338 1.6947042196989059e-02</internalNodes>
      <leafValues>
        2.3026268929243088e-02 -7.1396535634994507e-01</leafValues></_>
    <_>
      <internalNodes>
        0 -1 6669 -1.1062961816787720e-01</internalNodes>
      <leafValues>
        3.9053893089294434e-01 -5.6331682950258255e-02</leafValues></_>
    <_>
      <internalNodes>
        0 -1 49703 4.1647697798907757e-03</internalNodes>
      <leafValues>
        -1.1166405677795410e-01 1.8683926761150360e-01</leafValues></_></weakClassifiers></stage18>
</opencv_storage>
