<?xml version="1.0"?>
<opencv_storage>
<stage7>
  <maxWeakCount>10</maxWeakCount>
  <stageThreshold>-1.4176262617111206e+00</stageThreshold>
  <weakClassifiers>
    <_>
      <internalNodes>
        0 -1 46713 -1.0397839546203613e-01</internalNodes>
      <leafValues>
        8.2608693838119507e-01 -6.1494719982147217e-01</leafValues></_>
    <_>
      <internalNodes>
        0 -1 54466 6.1113578267395496e-03</internalNodes>
      <leafValues>
        -2.9367101192474365e-01 6.2546169757843018e-01</leafValues></_>
    <_>
      <internalNodes>
        0 -1 21672 -1.0822968557476997e-02</internalNodes>
      <leafValues>
        6.1375445127487183e-01 -1.8739263713359833e-01</leafValues></_>
    <_>
      <internalNodes>
        0 -1 68687 4.2764013633131981e-03</internalNodes>
      <leafValues>
        2.0635382831096649e-01 -6.3416129350662231e-01</leafValues></_>
    <_>
      <internalNodes>
        0 -1 28963 -3.7776646204292774e-03</internalNodes>
      <leafValues>
        3.0750492215156555e-01 -4.0471297502517700e-01</leafValues></_>
    <_>
      <internalNodes>
        0 -1 56199 -6.9825485348701477e-02</internalNodes>
      <leafValues>
        6.5025085210800171e-01 -2.0238174498081207e-01</leafValues></_>
    <_>
      <internalNodes>
        0 -1 345 3.1919792294502258e-02</internalNodes>
      <leafValues>
        -2.1536423265933990e-01 5.3661119937896729e-01</leafValues></_>
    <_>
      <internalNodes>
        0 -1 50262 1.6010221838951111e-01</internalNodes>
      <leafValues>
        1.5747304260730743e-01 -8.6119329929351807e-01</leafValues></_>
    <_>
      <internalNodes>
        0 -1 63467 -2.2553391754627228e-02</internalNodes>
      <leafValues>
        4.3628904223442078e-01 -4.0318879485130310e-01</leafValues></_>
    <_>
      <internalNodes>
        0 -1 4972 -1.1164894327521324e-02</internalNodes>
      <leafValues>
        7.1465724706649780e-01 -1.7201246321201324e-01</leafValues></_></weakClassifiers></stage7>
</opencv_storage>
