<?xml version="1.0"?>
<opencv_storage>
<stage4>
  <maxWeakCount>10</maxWeakCount>
  <stageThreshold>-1.6067621707916260e+00</stageThreshold>
  <weakClassifiers>
    <_>
      <internalNodes>
        0 -1 33915 2.4379894137382507e-02</internalNodes>
      <leafValues>
        -6.1111110448837280e-01 6.3157892227172852e-01</leafValues></_>
    <_>
      <internalNodes>
        0 -1 44742 -1.3146771118044853e-02</internalNodes>
      <leafValues>
        4.0426719188690186e-01 -4.1554805636405945e-01</leafValues></_>
    <_>
      <internalNodes>
        0 -1 62095 -2.5110922288149595e-03</internalNodes>
      <leafValues>
        5.0924867391586304e-01 -2.7523902058601379e-01</leafValues></_>
    <_>
      <internalNodes>
        0 -1 4023 -3.8957461714744568e-02</internalNodes>
      <leafValues>
        8.4210336208343506e-01 -1.4034038782119751e-01</leafValues></_>
    <_>
      <internalNodes>
        0 -1 45142 3.4997868351638317e-03</internalNodes>
      <leafValues>
        2.3763932287693024e-01 -6.8155270814895630e-01</leafValues></_>
    <_>
      <internalNodes>
        0 -1 44962 -1.4201153069734573e-02</internalNodes>
      <leafValues>
        -6.0194456577301025e-01 2.5793170928955078e-01</leafValues></_>
    <_>
      <internalNodes>
        0 -1 6942 -4.6088928356766701e-03</internalNodes>
      <leafValues>
        -7.9520624876022339e-01 1.2098084390163422e-01</leafValues></_>
    <_>
      <internalNodes>
        0 -1 77474 1.7883228138089180e-03</internalNodes>
      <leafValues>
        -2.7325654029846191e-01 4.8917990922927856e-01</leafValues></_>
    <_>
      <internalNodes>
        0 -1 14761 4.1712815873324871e-03</internalNodes>
      <leafValues>
        2.2953224182128906e-01 -5.6517404317855835e-01</leafValues></_>
    <_>
      <internalNodes>
        0 -1 77879 -7.6447809115052223e-03</internalNodes>
      <leafValues>
        -8.2545000314712524e-01 1.5479487180709839e-01</leafValues></_></weakClassifiers></stage4>
</opencv_storage>
